<?xml version="1.0"?>
<MethodSetup Method="DNN::DNN">
  <GeneralInfo>
    <Info name="TMVA Release" value="4.2.1 [262657]"/>
    <Info name="ROOT Release" value="6.08/02 [395266]"/>
    <Info name="Creator" value="leure"/>
    <Info name="Date" value="Wed Aug 16 22:40:51 2017"/>
    <Info name="Host" value="Linux vocms0315.cern.ch 2.6.32-642.6.2.el6.x86_64 #1 SMP Wed Oct 26 08:22:04 CEST 2016 x86_64 x86_64 x86_64 GNU/Linux"/>
    <Info name="Dir" value="/data/leure/bsTMVACDozen/myTMVA"/>
    <Info name="Training events" value="34803"/>
    <Info name="TrainingTime" value="2.35382420e+03"/>
    <Info name="AnalysisType" value="Classification"/>
  </GeneralInfo>
  <Options>
    <Option name="V" modified="Yes">True</Option>
    <Option name="VerbosityLevel" modified="No">Verbose</Option>
    <Option name="VarTransform" modified="Yes">N</Option>
    <Option name="H" modified="Yes">False</Option>
    <Option name="CreateMVAPdfs" modified="No">False</Option>
    <Option name="IgnoreNegWeightsInTraining" modified="No">False</Option>
    <Option name="Layout" modified="Yes">RELU|128,RELU|128,RELU|128,LINEAR</Option>
    <Option name="ErrorStrategy" modified="Yes">CROSSENTROPY</Option>
    <Option name="WeightInitialization" modified="Yes">XAVIERUNIFORM</Option>
    <Option name="Architecture" modified="Yes">STANDARD</Option>
    <Option name="TrainingStrategy" modified="Yes">LearningRate=1e-2,Momentum=0.9,Repetitions=1,ConvergenceSteps=20,BatchSize=256,TestRepetitions=10,WeightDecay=1e-4,Regularization=L2,DropConfig=0.0+0.5+0.5+0.5,</Option>
  </Options>
  <Variables NVar="11">
    <Variable VarIndex="0" Expression="Btrk1Pt" Label="Btrk1Pt" Title="Btrk1Pt" Unit="" Internal="Btrk1Pt" Type="F" Min="5.00000238e-01" Max="1.72004528e+01"/>
    <Variable VarIndex="1" Expression="Btrk2Pt" Label="Btrk2Pt" Title="Btrk2Pt" Unit="" Internal="Btrk2Pt" Type="F" Min="5.00023544e-01" Max="1.80035973e+01"/>
    <Variable VarIndex="2" Expression="Bchi2cl" Label="Bchi2cl" Title="Bchi2cl" Unit="" Internal="Bchi2cl" Type="F" Min="1.00008454e-02" Max="9.99997914e-01"/>
    <Variable VarIndex="3" Expression="BsvpvDistance/BsvpvDisErr" Label="BsvpvDistance/BsvpvDisErr" Title="BsvpvDistance/BsvpvDisErr" Unit="" Internal="BsvpvDistance_D_BsvpvDisErr" Type="F" Min="1.00275967e-02" Max="5.24563525e+03"/>
    <Variable VarIndex="4" Expression="Bd0/Bd0Err" Label="Bd0/Bd0Err" Title="Bd0/Bd0Err" Unit="" Internal="Bd0_D_Bd0Err" Type="F" Min="7.15755939e-01" Max="5.87745977e+04"/>
    <Variable VarIndex="5" Expression="cos(Bdtheta)" Label="cos(Bdtheta)" Title="cos(Bdtheta)" Unit="" Internal="cos_Bdtheta_" Type="F" Min="-1.00000000e+00" Max="1.00000000e+00"/>
    <Variable VarIndex="6" Expression="Bmu1pt" Label="Bmu1pt" Title="Bmu1pt" Unit="" Internal="Bmu1pt" Type="F" Min="7.17000067e-01" Max="5.63763084e+01"/>
    <Variable VarIndex="7" Expression="Bmu2pt" Label="Bmu2pt" Title="Bmu2pt" Unit="" Internal="Bmu2pt" Type="F" Min="7.11423755e-01" Max="5.03804474e+01"/>
    <Variable VarIndex="8" Expression="Bpt" Label="Bpt" Title="Bpt" Unit="" Internal="Bpt" Type="F" Min="2.81025395e-02" Max="1.17906815e+02"/>
    <Variable VarIndex="9" Expression="abs(Btktkmass-1.019455)" Label="abs(Btktkmass-1.019455)" Title="abs(Btktkmass-1.019455)" Unit="" Internal="abs_Btktkmass_M_1.019455_" Type="F" Min="4.01573175e-07" Max="9.99938995e-02"/>
    <Variable VarIndex="10" Expression="Blxy" Label="Blxy" Title="Blxy" Unit="" Internal="Blxy" Type="F" Min="-1.29130825e-01" Max="2.32892299e+00"/>
  </Variables>
  <Spectators NSpec="0"/>
  <Classes NClass="2">
    <Class Name="Signal" Index="0"/>
    <Class Name="Background" Index="1"/>
  </Classes>
  <Transformations NTransformations="1">
    <Transform Name="Normalize">
      <Selection>
        <Input NInputs="11">
          <Input Type="Variable" Label="Btrk1Pt" Expression="Btrk1Pt"/>
          <Input Type="Variable" Label="Btrk2Pt" Expression="Btrk2Pt"/>
          <Input Type="Variable" Label="Bchi2cl" Expression="Bchi2cl"/>
          <Input Type="Variable" Label="BsvpvDistance/BsvpvDisErr" Expression="BsvpvDistance/BsvpvDisErr"/>
          <Input Type="Variable" Label="Bd0/Bd0Err" Expression="Bd0/Bd0Err"/>
          <Input Type="Variable" Label="cos(Bdtheta)" Expression="cos(Bdtheta)"/>
          <Input Type="Variable" Label="Bmu1pt" Expression="Bmu1pt"/>
          <Input Type="Variable" Label="Bmu2pt" Expression="Bmu2pt"/>
          <Input Type="Variable" Label="Bpt" Expression="Bpt"/>
          <Input Type="Variable" Label="abs(Btktkmass-1.019455)" Expression="abs(Btktkmass-1.019455)"/>
          <Input Type="Variable" Label="Blxy" Expression="Blxy"/>
        </Input>
        <Output NOutputs="11">
          <Output Type="Variable" Label="Btrk1Pt" Expression="Btrk1Pt"/>
          <Output Type="Variable" Label="Btrk2Pt" Expression="Btrk2Pt"/>
          <Output Type="Variable" Label="Bchi2cl" Expression="Bchi2cl"/>
          <Output Type="Variable" Label="BsvpvDistance/BsvpvDisErr" Expression="BsvpvDistance/BsvpvDisErr"/>
          <Output Type="Variable" Label="Bd0/Bd0Err" Expression="Bd0/Bd0Err"/>
          <Output Type="Variable" Label="cos(Bdtheta)" Expression="cos(Bdtheta)"/>
          <Output Type="Variable" Label="Bmu1pt" Expression="Bmu1pt"/>
          <Output Type="Variable" Label="Bmu2pt" Expression="Bmu2pt"/>
          <Output Type="Variable" Label="Bpt" Expression="Bpt"/>
          <Output Type="Variable" Label="abs(Btktkmass-1.019455)" Expression="abs(Btktkmass-1.019455)"/>
          <Output Type="Variable" Label="Blxy" Expression="Blxy"/>
        </Output>
      </Selection>
      <Class ClassIndex="0">
        <Ranges>
          <Range Index="0" Min="5.0009191036224365e-01" Max="1.7200452804565430e+01"/>
          <Range Index="1" Min="5.0191628932952881e-01" Max="1.8003597259521484e+01"/>
          <Range Index="2" Min="1.0106012225151062e-02" Max="9.9983328580856323e-01"/>
          <Range Index="3" Min="3.5330440998077393e+00" Max="3.9434682617187500e+03"/>
          <Range Index="4" Min="2.6330080032348633e+01" Max="5.8774597656250000e+04"/>
          <Range Index="5" Min="-9.8942798376083374e-01" Max="1.0000000000000000e+00"/>
          <Range Index="6" Min="7.4313533306121826e-01" Max="4.9333396911621094e+01"/>
          <Range Index="7" Min="7.2692364454269409e-01" Max="3.1921850204467773e+01"/>
          <Range Index="8" Min="7.0032157897949219e+00" Max="1.0480618286132812e+02"/>
          <Range Index="9" Min="1.6249847476501600e-06" Max="9.2528536915779114e-02"/>
          <Range Index="10" Min="-4.6845201402902603e-02" Max="1.4165940284729004e+00"/>
        </Ranges>
      </Class>
      <Class ClassIndex="1">
        <Ranges>
          <Range Index="0" Min="5.0000023841857910e-01" Max="9.6109638214111328e+00"/>
          <Range Index="1" Min="5.0002354383468628e-01" Max="1.4760927200317383e+01"/>
          <Range Index="2" Min="1.0000845417380333e-02" Max="9.9999791383743286e-01"/>
          <Range Index="3" Min="1.0027596727013588e-02" Max="5.2456352539062500e+03"/>
          <Range Index="4" Min="7.1575593948364258e-01" Max="2.7708648437500000e+04"/>
          <Range Index="5" Min="-1.0000000000000000e+00" Max="1.0000000000000000e+00"/>
          <Range Index="6" Min="7.1700006723403931e-01" Max="5.6376308441162109e+01"/>
          <Range Index="7" Min="7.1142375469207764e-01" Max="5.0380447387695312e+01"/>
          <Range Index="8" Min="2.8102539479732513e-02" Max="1.1790681457519531e+02"/>
          <Range Index="9" Min="4.0157317471312126e-07" Max="9.9993899464607239e-02"/>
          <Range Index="10" Min="-1.2913082540035248e-01" Max="2.3289229869842529e+00"/>
        </Ranges>
      </Class>
      <Class ClassIndex="2">
        <Ranges>
          <Range Index="0" Min="5.0000023841857910e-01" Max="1.7200452804565430e+01"/>
          <Range Index="1" Min="5.0002354383468628e-01" Max="1.8003597259521484e+01"/>
          <Range Index="2" Min="1.0000845417380333e-02" Max="9.9999791383743286e-01"/>
          <Range Index="3" Min="1.0027596727013588e-02" Max="5.2456352539062500e+03"/>
          <Range Index="4" Min="7.1575593948364258e-01" Max="5.8774597656250000e+04"/>
          <Range Index="5" Min="-1.0000000000000000e+00" Max="1.0000000000000000e+00"/>
          <Range Index="6" Min="7.1700006723403931e-01" Max="5.6376308441162109e+01"/>
          <Range Index="7" Min="7.1142375469207764e-01" Max="5.0380447387695312e+01"/>
          <Range Index="8" Min="2.8102539479732513e-02" Max="1.1790681457519531e+02"/>
          <Range Index="9" Min="4.0157317471312126e-07" Max="9.9993899464607239e-02"/>
          <Range Index="10" Min="-1.2913082540035248e-01" Max="2.3289229869842529e+00"/>
        </Ranges>
      </Class>
    </Transform>
  </Transformations>
  <MVAPdfs/>
  <Weights InputWidth="11" Depth="4" LossFunction="C" OutputFunction="S">
    <Layer ActivationFunction="1">
      <Weights rows="128" cols="11">
        -3.4077139831583392e-01 1.1382612861420818e-01 3.3711383609744759e-02 -1.2161298236757052e-01 5.8949676939125374e-02 -3.8592676134869608e-01 9.2991819160149328e-02 1.1554942406350403e-01 -3.9774155313750864e-01 3.6335628817496562e-01 -4.9085912625058278e-02 -8.2827896437486129e-02 2.2081671996700475e-01 -3.9126997387180223e-01 -7.2825815886565946e-03 -4.3789755857128154e-01 -2.9334746263717038e-01 3.0084848301996320e-01 1.0377013663748769e-01 -3.0721562607648883e-01 -3.2936071437686276e-01 -2.1061813175846417e-01 -3.0008841501046679e-01 2.0094951406039238e-01 1.9686145283177586e-01 -3.0837844412351612e-01 -3.1628204956325962e-01 -1.2866170686092343e-01 7.0977382861474661e-02 1.5504103804980024e-01 3.1658599344694904e-01 -3.0676361876371461e-01 -2.0660530994515575e-01 1.4959745794081664e-01 -3.3374827875296620e-01 -3.5389822259855491e-01 4.0312352390258488e-01 -2.5111098182181385e-01 -6.0499419765898274e-02 3.3728333117426684e-01 -1.7203573052773224e-01 2.7033466366291126e-01 2.1936819188338133e-01 3.9304282490654802e-01 3.0980768541318870e-01 9.8182416234649184e-02 3.2550912640042694e-02 -1.8637144398641925e-01 5.1445230709314693e-01 4.1205878417000458e-01 1.1859232388332550e-01 -3.4670170005940254e-01 -1.0459313170185063e-01 3.2319846268312670e-02 4.5024946433413554e-01 4.4809892385059280e-03 -2.4353515812169127e-01 -3.6336179148554992e-01 2.4825824709557229e-01 7.3714088025850860e-02 1.1281237691411936e-01 4.0215938267998785e-01 -3.6496648999207776e-01 2.6721779973563442e-01 -2.9388364196310579e-01 6.6346623545258165e-02 -5.2835763692300453e-01 -2.2261082801245577e-01 2.2533432079069543e-01 -2.6042278304695082e-01 -8.6446575602727380e-03 -5.8874144912558424e-01 6.0810875586447273e-02 -9.9271513294939162e-02 -8.6116234778030445e-02 -1.3275880227214840e-01 -2.0847968885809778e-01 5.7467266379549999e-02 3.9806362354203995e-01 -1.1248964234479263e-01 -2.5733228154504245e-01 8.2339115424879455e-02 -1.5963418811452632e-01 2.2947124171516373e-01 -1.8364317565835153e-01 -3.2828598826068078e-01 -3.0923298963380003e-01 -8.2218221289698717e-02 -4.0491037259546475e-01 -1.8632769090850537e-01 1.9831877899338468e-01 -9.7769828917223772e-02 -7.4904950128951139e-02 1.1082633931319469e-01 2.3042445328774061e-01 2.1259239263189017e-01 1.2753403405301961e-01 1.6429634714969063e-01 3.3053941800473420e-02 -5.4902309859294318e-01 -3.6555403869556630e-01 -4.7137317386052330e-03 9.5395069971781557e-02 -7.8114053738715727e-01 -1.1290329898094771e+00 3.2107645423002201e-01 2.8051203781950323e-01 -4.1707996151534832e-01 1.4441346859237819e-01 -1.0297837998086632e+00 1.9080481371755587e-01 2.7732743646266805e-01 3.5916059419380880e-01 1.6906870455295339e-01 -1.4475586973841548e-01 -3.2426152711147294e-01 -3.0491764357730311e-01 3.5438509364742621e-01 1.6948414623639249e-01 5.0718265254178899e-02 -2.9186165744021247e-01 3.5451919990793468e-01 -1.9558218540330047e-01 -1.0772028413098476e-01 -3.1593749812582600e-01 -1.7877976694033285e-01 -1.4968306461518119e-01 3.2534272342008530e-01 -1.7845589312682714e-01 -1.0391343724310374e-01 4.6717929682269338e-01 6.8825300458619995e-02 2.1400641249182967e-02 -3.9551160984291373e-01 -2.9594011727777908e-01 3.4496234915589302e-01 -2.7979321426184205e-03 -3.6574755810441184e-01 3.8728241177395123e-01 1.7319964328243742e-01 -2.8697763153018169e-01 -3.4907029338532070e-01 1.3932738609339251e-01 1.2264064399845945e-01 3.9019922549202335e-01 -2.7953199566791553e-01 3.3653888928562736e-01 3.7510161481867299e-01 2.0710815638424973e-01 -1.6406791255091516e-01 -1.5710739790661194e-02 2.5793902116603451e-01 -9.6078806256609861e-02 2.5431595744037122e-01 3.9114752280807291e-01 3.7449508552573357e-01 1.3497451735268411e-02 -9.9829857653831372e-02 1.0977674741934671e-02 7.0839559486036419e-01 1.8020899916914268e-01 -1.3508481416071644e-01 6.9295751087871766e-03 -6.5609966425970015e-02 1.9663720850890212e-01 1.9781910847512268e-01 -1.0446367480413356e-01 -1.1562329485686441e-01 -3.8209678516159085e-01 2.0803500191248481e-01 3.9766574025668705e-01 2.8299263896022636e-01 2.6156764598588450e-01 1.8351591217492874e-01 3.9228655934336754e-01 -3.0686066361845060e-01 -2.6201170236252064e-01 -1.6637089166553437e-01 -2.6798987575897791e-02 1.5977651900783574e-01 3.4498189563494208e-01 9.7567271095229096e-03 -3.6659881140708744e-01 5.9368861825864372e-01 1.3638166190236567e-01 -3.6841007507696261e-01 9.9857737724632217e-02 -1.2871724619700459e-01 -2.7330531090324411e-01 -2.8401032222240330e-02 -1.4475549199117926e-01 1.1209848086292647e-01 -4.0672071546793059e-01 2.3008889136863614e-01 -2.7833559353635423e-01 1.6394670282498608e-01 1.6198647038565017e-01 1.6209269242136054e-01 1.6885318573450089e-01 -2.2060308378057014e-01 2.3341540171552697e-01 5.1157483562757913e-02 -3.5863417555471117e-01 2.5197787874257031e-02 -3.6015277111620547e-01 -5.1424626214366449e-02 1.8488925187660882e-01 1.2329682662794646e-01 1.5127420611864711e-01 -1.0894668240881970e-01 -3.2430688357703230e-01 1.6335173724321372e-01 2.5357601536282481e-01 2.5861285368087511e-03 -2.4256489643217596e-01 -1.0072342510101338e-01 2.2162159228100076e-01 1.6841042628545477e-01 -1.2095006662648645e-01 3.5332352399317785e-01 4.0849761946050861e-01 1.1225269131149705e-01 3.3612201190079027e-01 3.7911234109081243e-01 3.9247454436927752e-02 1.8133001116130538e-02 -2.5321590161773117e-01 -4.7950219190159030e-02 -1.0334371022976729e-01 3.2299178612850427e-01 -3.3694646755655705e-01 2.6758131126278062e-01 2.9040889558903987e-01 -1.6170994895980978e-01 1.2032807849705532e-01 -2.2802020716304597e-01 1.0796381527485524e-01 8.4065460896947788e-02 1.3848847067960057e-01 -2.0566032691599045e-01 -2.3131791886305261e-01 -4.5738661926448834e-02 -3.2669380156831085e-01 2.6100639547882126e-01 -5.3112682384903402e-02 3.4643538649031164e-01 1.5627537669930266e-01 3.3222061037008804e-01 -4.4986431626389115e-02 1.5046581115847826e-01 -1.9864052058291443e-01 7.1951062298855159e-02 -2.4512048233989081e-01 3.9338861116312634e-01 1.6506735180462365e-01 -1.6852801062144296e-01 -1.3500614108223485e-01 1.1153864985813595e-02 -2.5290127814699120e-01 2.7506770526561608e-01 -1.8405000621082859e-01 2.1312803873109898e-01 -4.2285701225101158e-01 -1.2247959803079927e-01 -5.1661809744235662e-02 8.0716216624678455e-02 -6.3638020818766960e-02 1.7904656629843643e-01 2.7019592952459315e-01 1.8410335989327852e-02 1.7069387979683390e-01 -2.6009368805409583e-01 -7.4478222962537349e-03 -3.0688714751921070e-01 5.2512725866757017e-02 8.9137076855174498e-04 -1.0232312520609281e-01 -7.8112781239823501e-02 -3.8865804162073903e-01 -3.7116703527831635e-01 -3.7822418253141581e-02 4.1581130756225398e-01 3.1737144443185911e-01 -2.4827485233103133e-01 -1.9717928579033189e-01 -5.9631591493181507e-02 2.4329542683114848e-03 -1.4738314408875697e-01 -1.0974714622251715e-01 4.7000912337529416e-01 2.5804736942623685e-01 3.8880223428662142e-01 3.7344017677233282e-01 -3.1448495330644471e-01 -6.4825253157762400e-02 -3.3347002607041815e-01 2.4092612568542160e-01 2.9422975677031442e-02 2.1050149796979439e-01 -5.7106700635955139e-02 2.8975279400803015e-02 6.4330754452058458e-01 3.4792712364911038e-01 -2.5230641718864254e-02 3.0111403262919434e-01 1.0327171271068061e-01 4.4438561513825837e-02 4.1977282670837790e-01 3.3799092631051275e-01 1.2598910943658881e-01 2.3195541067902667e-01 -6.4003197861066577e-02 -4.1081896002661539e-01 -1.8043595811657465e-01 2.5690632489666199e-01 3.8406511416095085e-01 -1.2105625958229216e-01 -1.7617950400935023e-01 -4.7389580589241403e-01 -3.6634699625789541e-01 1.5444112058903470e-01 1.8003873213548871e-01 1.5179369564853612e-01 -2.5220417882424145e-01 2.2049496560036522e-01 1.2484859347269510e-01 3.2861422321619210e-01 9.7955673417037564e-02 4.6782391991695496e-02 -4.6420974072528220e-01 1.3737184324160209e-01 -1.4836258626688953e-01 -9.6275627777990674e-02 3.8363341290779457e-01 3.2958653774878827e-01 3.4144537861286649e-02 -2.0235745038162853e-01 -1.3774918783806251e-02 2.1696421279066255e-01 -2.3236995727753851e-01 -2.4954784929267981e-01 -1.4827649539776613e-01 2.9383064451432184e-01 -3.2114928540576460e-02 2.2414337081410124e-01 6.9014601785812493e-02 4.0899612986806305e-02 -1.7877198437023151e-01 2.6725945619780916e-01 2.5977852840025439e-01 -2.8107850684664532e-01 3.8444018884164660e-01 6.4149991622047695e-02 9.5291781366985698e-02 2.4726552352564818e-01 3.9497768734506278e-01 -1.8871805080669993e-01 5.5306203280393221e-02 3.9227974161002166e-01 -2.0159713495170520e-01 -3.1847861599054983e-01 4.0201282755752979e-02 1.3549626828789857e-01 -3.9719580039963315e-01 -2.0351980835269506e-01 -2.3840243003756481e-01 1.1839246552007132e-01 -5.2579099559642939e-01 -3.8711131805420929e-01 9.9023304069276910e-02 3.3326605121164254e-01 -3.9370844150572637e-01 -1.3246610186579372e-01 -4.8647089708217450e-01 -3.7478100893342942e-01 -6.5672166578019933e-03 1.0364903275941827e-01 -1.1991079721935462e-01 1.2754056253195159e-01 -5.0268328673230522e-01 2.8880940679324862e-01 3.1914314984643966e-01 2.3974511574572702e-01 -7.9947252038993638e-02 2.0751042991371904e-01 -1.4152893331894528e-01 2.8638887998133938e-02 -3.0781039001723043e-01 1.2203573089189361e-01 3.0046067585423641e-01 -2.6212372584171678e-01 2.3949561355741441e-02 2.5982603125111020e-01 -4.3267597402135560e-01 3.5966514228988850e-01 -2.5883949735751066e-01 2.5308404405134410e-01 -1.3565889019191221e-01 -1.1402735033494771e-01 -3.9126756704223969e-01 -2.6839685939513752e-01 -2.9908109416217071e-01 -1.0429357580635452e-01 2.3266438060236330e-01 -2.1926011554818392e-01 3.5371550017878600e-01 -3.3695669288947483e-01 -1.1020694713445728e-01 -1.8736706942609940e-01 3.0445841695607723e-01 -2.8036609772187403e-03 4.4715249483214307e-02 -2.2078794974071689e-01 -1.1677274634451038e-01 1.9847006620473610e-02 -3.5476122333589544e-01 -3.9763428640555563e-02 -4.3935302510169510e-01 -3.5751627513563533e-01 -2.3299741761386147e-02 4.7478845342806900e-02 -1.7790190947734608e-01 2.5718901011489598e-01 2.6482156618800662e-01 -1.3733674884456104e-01 -1.0309329081255916e-01 2.3340594988073896e-01 2.0514575019160056e-01 1.1075670403726452e-01 2.2689459082516986e-01 -8.6775717093060589e-02 -1.2309117160987046e-01 3.8585896797454533e-01 -1.7504546607720628e-01 -1.0562056239151234e-01 -3.2598733192407692e-02 -1.0849798787575457e-01 2.4839997945871933e-01 6.8778148048901949e-02 7.4496782260808081e-02 -5.5360514706896125e-01 -5.5963151499961694e-01 -2.7597217477853746e-02 3.1572193585389841e-01 -6.4769331191123969e-01 -1.0303412749680214e+00 4.0279896976371449e-01 1.2812492226568539e-01 -4.7354582364560344e-01 3.2336025653825340e-01 -5.0876071569043069e-01 1.6525196963596184e-01 -1.6912687563205095e-01 2.1132768994432599e-01 -9.8021404805386542e-02 -4.2958843544299008e-01 -6.4276708152273876e-02 3.1050097167036900e-01 3.0115927439432322e-01 1.1668830696965127e-01 3.1565635867949936e-02 -3.0722725958613167e-01 1.0995105547046859e-01 1.4512839174824957e-01 -1.3997421149667141e-01 2.4597642388629562e-01 2.0919922091437446e-01 -1.4857330022860873e-01 2.8224639693407019e-02 3.7444981605244287e-01 -1.5941198474531332e-01 1.2509679771027085e-01 3.6435503047004886e-01 2.1641996502629540e-01 2.5946114049233510e-01 5.8281834828508794e-02 -3.7644189976471742e-01 -3.5919067220500445e-01 -1.5111399279452563e-02 2.5623651093220473e-01 1.1562019088320144e-02 -1.3624904384082528e-01 -4.7578269280571885e-02 -1.7607665321564209e-01 3.1331660485946461e-01 3.6314035526543342e-01 -3.7369031801802371e-01 -8.5702733341593423e-03 2.3240617567714877e-01 2.1594343639116876e-02 2.0533657180410297e-01 1.8240269509646168e-01 2.5179391576952881e-01 -2.4548561283548562e-01 -2.9495570713013664e-01 -1.6112693371308748e-01 3.5797688345537287e-01 1.6411336403898308e-01 1.3954170080104323e-03 -4.3273089843314121e-02 -4.6656053788508250e-01 -9.2134277188301403e-02 -8.6300123367828635e-02 1.7297713422375893e-01 4.9341639631791896e-02 -2.2357357233361239e-01 1.3886466721278598e-02 -2.9316364684941081e-02 9.3444926323427522e-03 3.6159083543253229e-01 3.5345420913952186e-01 -3.1477156181564592e-01 1.6783743726993372e-01 8.7679824442326332e-02 -2.9927066907451866e-01 1.5856242401376205e-01 -2.9390193413390253e-01 2.8897660012091320e-01 1.3008601177908569e-01 -2.3583860542460081e-01 -3.0294923329221424e-01 -2.0362085463685828e-01 5.4602678464709363e-02 1.2837894861542173e-01 3.9141120890433384e-01 -1.5065256074547367e-01 -2.1235821188956705e-01 1.3638034592173531e-01 2.9545647952392334e-01 9.8073119523754790e-02 -2.7775294202361245e-01 -3.1237239863902144e-01 2.8191714592351974e-01 -3.2028948082015668e-01 -1.5416749396545545e-01 -3.7023136020951491e-01 -2.9076109060023547e-01 -2.9739914306741683e-01 2.2580738219452695e-01 -8.2808704650862194e-02 -2.8208745011230685e-01 3.9332406189267331e-02 1.8830280868766956e-02 -2.9679507328734012e-01 -5.0582867844520307e-01 -3.8482788679935730e-02 -2.0010458612188814e-01 3.2649903758289039e-01 -1.8392878331477330e-01 -2.8044043441594668e-01 -1.8116116034488473e-02 -1.4539148689496029e-01 -2.1798539357143984e-01 4.1774861020752496e-01 -6.4469052979906544e-02 5.3588205389306764e-01 2.6307596351385865e-01 8.8497065237601771e-02 8.0217690616215073e-02 -3.6619492730615633e-01 3.6458377218366816e-01 -2.5436781591130891e-01 1.9458954233200650e-02 -5.9507791879175480e-02 -1.4459795776339451e-01 4.2982780284175109e-01 3.2452246969687593e-01 3.6568599504122079e-01 -2.1567872735148405e-01 3.2422713990195690e-01 1.9556726547983341e-01 -2.3941343419238362e-01 9.0089048061445548e-02 -3.5498434874819096e-01 -2.1082133120778629e-01 -2.7148276464977766e-01 1.1087925282613431e-01 2.6817032209606219e-02 4.2793015711044863e-01 1.7404789637018789e-01 -9.5897356791526070e-02 -1.7729650871958255e-01 -2.5690521899363050e-01 -2.1686959873796555e-01 2.7175141225392047e-01 -3.6457091235366966e-02 2.4213659837232288e-01 6.2343714504253162e-02 2.4934405609249410e-01 -3.6346651532264476e-02 -2.3047897425182134e-01 3.8344142175460683e-01 -2.7248400999338229e-01 -2.1317691055438423e-01 3.9392647584343020e-03 3.4213738594617932e-01 3.7432337929672344e-01 9.0238196072628354e-02 -2.3346267212568952e-01 1.1310211168518247e-01 2.4883875075424880e-01 8.6820384438791934e-02 1.2289587926597360e-01 1.1638295676907067e-02 9.4687632637126595e-02 4.6545112678248329e-01 5.5255538102083435e-01 -7.8081560219501842e-02 2.2590242079512513e-01 4.9247227714749520e-01 6.5715853928024126e-01 6.8506053666473846e-02 -2.1504743022974832e-01 -1.2536960888052914e-01 -7.1942340675328578e-02 4.5851845186444848e-02 2.9980316268679491e-01 2.6864519244563939e-01 -3.9221386316361029e-01 9.1282207438893523e-02 -4.0249196539679394e-01 -3.2904738819638507e-01 -2.5377463520873250e-01 -2.1175404603496611e-01 8.5851816106492840e-02 -2.8951626028229055e-01 -1.2493471123140293e-01 2.7288138892998431e-01 -3.9645431285472241e-03 -1.0586837760295329e-03 -2.4605671675215485e-01 -4.3266557011789397e-01 -4.2743529016254644e-01 -2.1941302629328124e-01 2.5332023719991137e-01 -1.3920011207907318e-01 -6.1066819180415302e-02 -4.4118560732027134e-01 -3.2378812499022386e-01 -4.6648708912946529e-01 -6.0674856763890651e-02 4.3758469148237172e-01 3.9494939333998939e-02 9.2461224240717718e-02 -6.4347428302535129e-03 3.8460050374853050e-01 -2.3887045932087292e-01 2.2984409601330197e-01 -8.1391507165455901e-02 -3.1331672994428134e-01 1.5900648038802517e-01 2.0903036358437346e-02 -7.0664521915066197e-02 -1.0518872586831686e-01 -3.5943792836760019e-01 -3.3876795843752000e-02 2.2665218249173780e-01 -2.6593837109335056e-01 1.5852556596212045e-01 2.9687650283555533e-01 -4.0913137333912393e-02 3.1447017898722722e-02 -1.6551543411846500e-02 4.5233754250755992e-01 -4.6044371461840643e-03 4.2094624134085501e-01 1.3729449946048808e-02 -1.9178494119590506e-01 2.3481300314530124e-01 -1.0065315586803590e-02 4.1547213029477487e-01 -5.9220239201752692e-02 2.3277758911944571e-01 3.9519736976990133e-01 -1.9961057321293835e-01 3.4356364142770751e-01 -7.9921238360550248e-02 1.6895231351872184e-01 2.8075135010779961e-01 -3.2174762632179904e-01 -3.0980264826980081e-01 3.5794214597592694e-01 1.6781574689623047e-01 1.4565621631367667e-01 2.9221427058990218e-01 -1.3886582815912226e-02 -1.0216883894782627e-01 -6.5555272301396780e-02 -4.2671025238689436e-01 -2.5124335366302603e-01 -2.7590957610683453e-01 1.6784914620359945e-01 3.1071260971946829e-01 -6.3351687898252795e-02 3.2997476930805009e-01 -7.2264311894660996e-02 2.9852612883866475e-01 3.8529865987931700e-01 3.1177171098555079e-01 -2.9834619665116613e-01 -2.2559618222798880e-01 -1.2217843239409704e-01 -3.6013272346568465e-01 4.3867735197812152e-01 -4.3785510567538682e-02 -2.9405412426531019e-01 6.5609166372052538e-02 3.3217417454823511e-01 -2.0453477745470439e-01 2.7451320882450625e-01 7.4959934014725060e-02 3.0003198199088627e-01 -1.9258282517206571e-01 -3.4046623310762325e-01 4.0838957046738944e-01 1.7334024939339995e-01 -2.9750604208999820e-01 3.2528931443978942e-01 -6.2064923443310452e-02 4.1350710108896860e-01 1.2984912339836413e-01 -1.5836518829274474e-01 1.3182722185820206e-01 -8.4477677462692247e-02 -1.9803697792914146e-01 -5.9450455173451038e-02 2.4066246421412188e-01 4.0941025427128941e-01 2.2281695963585260e-01 -6.4910804037927733e-03 1.6091128546050226e-02 1.6169809938853974e-01 -2.0801563291607836e-01 4.3099792265357789e-02 -5.5219628419721667e-02 3.1555823542127870e-01 -2.6641794006054037e-01 -8.0057537602139753e-02 2.0630507690767896e-01 5.7902877261536423e-02 -2.8912285925515663e-01 5.9914796845060493e-02 -2.5563822974487510e-01 2.5740661059304659e-01 1.8284467039715024e-01 3.9638985801646376e-01 -1.1972698203712706e-01 -1.4154328405171274e-01 3.8527280924418750e-03 -1.6148850354141997e-01 3.2861333647091617e-01 3.4897913869030223e-01 4.4938960552644291e-01 3.9381645753201683e-01 -2.6967375636810192e-01 -6.1635968010232745e-02 3.0175676885476876e-01 -4.0903306155933328e-01 1.3807172035795040e-01 2.8215940679643831e-01 1.5087465355343643e-02 -2.8135145694802283e-01 -1.5129668861344048e-01 2.5908626793657158e-01 -4.0512777576314130e-01 1.2096666542662825e-01 -3.2475323159795583e-01 3.5019489506351870e-01 1.5485217651896882e-01 3.5116039039634567e-01 3.9287204903088574e-01 7.5341136819106522e-02 -9.1493512051106438e-02 6.2121882366785744e-02 -4.4331961272702315e-02 -2.1589458376333140e-01 -3.6758383701536596e-01 -5.6744544053464067e-02 2.3786665486735500e-01 1.9205516255722907e-01 3.3931554251226032e-01 -3.2062204881666073e-01 -2.7413058099254339e-01 -2.9261430619603762e-01 4.0219565512982236e-01 -1.5472541034002621e-01 1.6352828788820325e-02 -7.2097188430413073e-02 -2.0915028264491969e-01 7.5643586702311721e-02 -3.7933335996402895e-01 3.1184319906395425e-01 -7.8338293198238887e-02 1.1578208699614641e-01 -3.6646714736881048e-01 -1.7393457408930106e-02 3.8136838829259401e-01 6.0005125276698476e-02 4.6046449597808368e-02 1.4681093121714431e-01 -2.2636819944428752e-01 -1.6023156198467639e-01 3.7024544174700580e-01 2.1695127856654139e-01 2.9294140262650264e-01 1.6732969631857050e-01 -3.7971992288451072e-02 3.6633157029895158e-01 2.7629725938657246e-01 -2.8371932170793590e-01 5.6012464395547773e-02 -6.4817554949095968e-02 -3.5824529535355709e-01 -1.4504575925114566e-01 -2.2259183231998841e-01 -3.8277758382580923e-01 5.8275388984554049e-03 3.0324439883785814e-01 -8.4672597530713253e-02 -8.1668607989027975e-01 -5.4915982051027358e-02 -2.0467818793456077e-01 -5.5947594901612419e-01 1.2624946450204250e-01 -7.0438666059831168e-01 3.8029788200244513e-01 -7.6741711052301279e-02 7.6560456612627739e-02 6.2606851105437969e-02 1.7051374724062290e-01 4.4562250599925336e-02 2.7967634896500748e-01 -3.4867494282461303e-01 1.7634579954409243e-03 -3.9611508864245742e-01 2.5604562938620606e-01 -2.1441826983268941e-01 -1.4051757680347435e-01 -2.4479887197374839e-01 3.8963544546603744e-02 -1.0930431126187704e-01 1.7536081242471252e-01 -2.3042389220889980e-02 1.6949753269976772e-02 4.0787687211054691e-01 3.0693748856417252e-01 2.9495222331039961e-01 8.5493779304060741e-02 -3.3123346859161168e-01 -8.1757058678369063e-02 -2.8094918998102092e-01 -3.9997624884592226e-01 2.0067853304353608e-01 5.0416057022129912e-01 -4.2708797540815850e-02 3.4515061200405950e-01 3.6544016638960258e-01 1.5537962906555345e-02 1.1537021549258873e-01 2.2460504243842982e-01 -2.9089428555483288e-01 1.3597025865016824e-01 -2.9862955301371447e-01 -2.4193743700799736e-01 6.1761710706005467e-02 2.9185716608747464e-01 3.0118558789667804e-01 -1.3778466282945759e-01 2.8634856967985314e-02 1.4230760545681365e-01 -4.1644666816481901e-01 -3.0092771648199266e-02 3.5997654067267826e-01 -5.2285617687437214e-01 -8.1500015765946265e-01 -1.4812519363561777e-01 -5.0582022425594453e-02 -3.1242985197372403e-01 -1.1814810615999925e-01 -3.9498440692582687e-01 8.0677484478686196e-02 -1.8006187049727870e-01 8.6209755412958430e-02 -7.7624010101244742e-02 2.9866730645337675e-01 -3.7017361464169646e-01 3.3966202605992674e-02 2.1053626442486992e-01 -1.5679829555104580e-01 -2.4289167689814861e-01 1.3071331125212240e-01 -3.0988748752555934e-01 -2.2590973969866132e-01 -2.0763310830739951e-01 -1.6037815950012169e-01 -2.2006666988936754e-01 -2.0170907443865991e-02 -2.2818457924566421e-01 3.4857479229668165e-01 2.1169317681726230e-01 4.2747531865236871e-01 -3.7033484848416270e-01 3.8640977046053682e-01 1.8283200641595953e-02 1.8483555633501308e-01 2.3698498883092070e-01 -1.5060853149457401e-01 -2.2860046723633956e-01 -2.4517615677413071e-01 -2.4280450380862051e-01 6.2001834180323470e-02 1.0088628487675265e-01 1.0991703723700919e-01 -3.6568793026737317e-01 -4.8772567592338494e-02 -2.3090664871352393e-01 -2.7207452016520989e-01 4.8980069037479486e-02 -3.7725657491935727e-01 -5.5538684941948475e-02 2.2900573225369508e-02 -3.0027714856044491e-01 3.3065861242447636e-01 -3.4804757901059274e-01 -3.8392341135470388e-02 -2.8026003772544217e-01 1.4870050974356522e-01 -3.6414785011526042e-02 3.3530551326464542e-01 3.5411426819602243e-01 -2.5186028117084996e-01 2.0796577091119095e-01 3.6769738329090113e-01 2.0283536916590500e-01 2.0496266568753463e-01 4.4932708207678518e-01 3.7405110947097159e-01 -1.2237021101960634e-01 -1.2869948776892248e-01 -1.6948683346009072e-01 8.0537444889701049e-02 -2.3199555330981228e-01 -1.5162603697114477e-01 -6.4215100398922767e-02 -6.7049155153716539e-02 1.5167029614144967e-01 -2.1241458099940019e-01 1.2928848725585179e-01 2.6448347883787132e-01 1.1123985426807252e-01 4.2867321566555061e-01 -3.4009358910082173e-02 2.9060046297457887e-01 -1.6536512055474814e-01 -6.3782502012908512e-02 -2.6226598880635227e-01 -3.2608528182198371e-01 6.2875164330296968e-02 -6.8187002317918674e-02 -6.3520881644145181e-03 2.4614505951018512e-01 -1.6576205795964152e-01 3.7450325727365530e-01 -4.2708729289546943e-01 3.5251245207406845e-01 1.4259078728806288e-01 -3.3917796626056269e-02 2.7647898523147046e-01 -2.3713700762766260e-01 4.6029929138816678e-01 1.5830266443093613e-02 -1.3161970706952031e-01 -2.4139141603202238e-01 2.0912736777244437e-03 9.1811967889383075e-02 3.4940576681635205e-01 -3.2435404738501050e-01 -4.1384195423706506e-02 4.8772325565388602e-02 -6.2830175891026990e-02 -4.1541161950601874e-01 -2.6073501654338443e-01 -5.4677764057983240e-02 -3.1477415965977584e-01 1.8755997264222730e-02 1.4826236158729664e-01 -2.7967597434770441e-01 -2.0799385424289449e-01 2.6822753452822468e-01 1.3867696087985978e-01 -1.9911431083540906e-01 -5.0888819434892218e-01 -1.5516754090904319e-02 1.5479359098109616e-01 -2.0353005475449948e-01 -7.2286000970059727e-01 5.7645354049177998e-02 1.1877323097167723e-01 -3.1062823752825160e-02 1.9139859279792440e-01 -7.3504353895700614e-01 3.0929069179021168e-01 -1.9070616725704585e-02 3.6409766479252759e-02 -1.3969729144090681e-01 -4.4993892372152167e-01 -8.5945055235128784e-02 -9.2710855938105186e-02 -1.3545248574837629e-01 -1.4295760827446030e-01 3.1874460483714551e-01 2.5457300334543254e-01 -2.3248078612815867e-01 1.9452271770285445e-01 1.3646377187407360e-01 3.6195475656207066e-01 2.5586693236251812e-01 3.8315902208274788e-01 3.3845009436834833e-01 -2.7509167366192167e-01 -1.7286366216689719e-01 -6.6537502483789687e-02 1.8784127346240592e-01 2.0164272989299539e-01 -5.0642908216184099e-02 1.7287885890603445e-02 -2.9392006624338335e-01 -7.1013388857390070e-01 -5.3135767810641421e-01 1.0457162206910167e-01 -3.8635613891999420e-03 -2.2871259587597242e-01 1.9670124131705294e-01 -5.2276843639069159e-01 4.8494893708440157e-01 -1.8670308325435339e-01 -4.1593889428745742e-02 3.7977134419248770e-01 6.0383666245598788e-01 3.3994533882480776e-01 3.2547940349916572e-02 -1.2334096378984787e-01 3.1646077507042591e-01 1.9869914744143079e-02 -6.9812270574924382e-02 5.5759599410933874e-03 -2.5430974811195867e-01 5.8325635649000972e-02 2.9831529570256243e-01 1.4052708601726321e-01 -2.0483876070660867e-01 2.4912936158737936e-01 3.3106576059762566e-01 3.5329100342957082e-01 -2.2675741628672353e-02 2.5374149446855154e-01 3.3442028731092205e-01 1.5707311539847135e-01 -8.0708410663204624e-02 -2.3417959672871391e-01 -1.2961296558250271e-01 2.6777467055823301e-01 -3.3227490146951388e-01 1.3130790724291086e-01 2.8913878204920263e-01 2.2960724807941466e-01 -2.6389969832265242e-01 1.0075424125071979e-01 -1.7367471878508189e-01 1.5413554707881826e-02 3.9875431866273631e-01 2.0494862842331349e-01 1.5979178483661338e-01 -2.3591427639997489e-01 3.6163632877701896e-01 -3.9089487892952732e-02 -1.9363785022967711e-01 -1.2819019125716347e-01 1.3906609008538198e-01 4.0212676019412635e-01 -3.4005473928086705e-01 1.4750060662477241e-01 -1.9572886457851174e-01 1.8253947287594868e-02 3.8604468720127860e-01 -2.2681535423371441e-01 -1.2734204008415476e-01 -3.5601228734871854e-01 -1.8866231848157583e-01 3.2635929394948959e-01 3.3423816177904736e-01 5.7453166404700167e-03 -3.0958436631259684e-01 3.7386225581276800e-02 -3.9471833495273317e-01 -1.7452987516902665e-01 1.3203795069754018e-01 -3.0099019444267061e-01 9.2623751825285455e-02 -1.7756460358250645e-01 3.4743520695492591e-01 -2.9990323356918688e-02 -3.3482347777847882e-01 -4.3328682069758546e-02 4.9997604116350242e-01 3.8061272732619461e-01 3.2395808583979119e-01 -1.5041716790060430e-01 -5.3111079988695860e-02 -2.6677143729183050e-01 -2.1638657579763804e-01 3.8932690556187982e-01 -3.0647165296005197e-02 -2.9076905940397935e-01 1.4318147746738057e-02 3.0729827103360523e-02 -9.8276344161106505e-02 -1.5992623626592009e-01 -1.5475869192318140e-01 2.1775482932115186e-02 -2.8650843175089524e-01 4.2708545056893488e-01 -1.7272410668987553e-01 3.2468618621103806e-01 4.2437420482875694e-02 1.7850203245163632e-01 2.9270719064851064e-01 2.1052527715731334e-01 3.9692652004312395e-01 -1.0628753420382656e-01 3.6284987927132896e-02 1.8011093020864474e-01 2.3380547896212949e-02 1.1709564595608716e-02 2.1379688369100400e-01 9.1672270650819385e-02 2.7396944740656132e-01 8.8583556859420903e-02 1.1970039495710050e-01 -1.3722175852130650e-01 -3.8075558877065041e-01 9.1324829312968356e-02 2.0540421948356405e-01 -1.1118868890695635e-01 -3.3789579637343449e-04 2.4567700680418109e-02 2.2738981330695349e-01 2.0474291471966066e-01 1.8448558312097743e-01 -2.7472956829936862e-01 -2.8865405106738246e-01 -3.1663331153263286e-01 4.5527036650815828e-01 -3.4006129435029020e-01 -9.7166571009878369e-02 3.1102284941732355e-01 1.3587750737593918e-01 -1.2299279479997495e-02 1.1563092196530528e-01 1.1681797148323024e-01 -3.5429048547021696e-02 1.4882283804758170e-01 2.1979337378184519e-01 1.1751596919296461e-01 1.5249206039001037e-01 -4.1564156679723692e-02 3.1189246262679788e-02 -3.4273783214311843e-01 3.5590826093800806e-02 4.5648691215844682e-03 -6.8635961135403423e-01 -5.9027108414417384e-01 -3.5190793183540126e-02 1.8823944002483696e-02 -2.8368572363558919e-01 4.8909609700011525e-01 -3.6917148459045518e-01 1.8797592423490811e-01 1.7618589259910368e-02 -3.3386546660240227e-02 -8.1366249917953715e-02 -1.8154017193048622e-01 -2.7210436354657019e-01 -2.7732100563341056e-01 4.2015825487187786e-01 -2.5359143114495997e-01 6.7103776704270396e-02 3.6130451472958169e-01 2.3696613437726788e-01 -2.0658061591821178e-01 1.4172119665999663e-01 5.6649414999728039e-02 9.5236842510666997e-02 -3.1063580614632591e-01 -2.4385008728020444e-01 1.8596008689158033e-01 3.9024637564576764e-01 -4.2447031074804320e-01 -3.5710773845339869e-03 -3.1267373060016695e-01 3.1912000264173276e-02 -1.1819355701901373e-01 -1.0302086005539075e-01 -3.0951628714894164e-01 1.8347926401528417e-01 4.7916941679934899e-01 -1.4325988609101398e-01 -4.3160535005634503e-03 9.2781189781908052e-02 -1.8067884578754195e-01 1.7948146115780975e-01 3.0690402574977604e-01 -1.8428719116010581e-01 -1.2283338613355295e-01 -1.0641665452128898e-01 -1.9639614474919898e-01 -2.0106531018706453e-01 1.9593794251506469e-01 -1.0385728043376731e-01 3.2822641456385416e-03 -1.2099141711746907e-01 -3.5708940816982576e-01 2.7671265025811265e-01 3.1208162357859018e-02 2.6843302351153936e-01 3.1567692515473852e-02 -1.1186834148299685e-01 -2.1391783789068605e-01 1.5015188124287282e-01 2.4306178541420764e-01 -2.3682476624333870e-01 3.0307355446986933e-01 -1.9969391682939902e-02 3.8922749371618520e-01 -2.1353516313008239e-01 -1.8023408633474894e-01 3.1133177642897658e-01 -9.8895596317077603e-02 -1.7632973589383556e-02 -5.6751912362953086e-02 2.4931348676032131e-01 2.7732475602858003e-01 3.7496401749011721e-01 3.3545725367899021e-01 -2.2668060311683999e-01 2.3275401731069616e-02 1.0709933638970655e-01 -1.1833449847753784e-01 2.2675273349945665e-01 4.3311696902826757e-01 -5.3743733112551018e-01 8.5499849697036195e-02 -2.3104324144303520e-01 2.4591548875939251e-01 3.3047800870093907e-01 2.2039726641828666e-01 2.7953683540544666e-01 3.5224526029262693e-01 -1.9788676524685053e-01 -3.3601537206313925e-01 9.1682690720677029e-02 -3.7538248679433051e-01 -3.3935295225786338e-01 2.5498967279647311e-01 -4.1632182731241135e-01 3.1796228010771072e-01 -2.0381525372434525e-01 2.3218242068986519e-01 -1.9619005665543818e-01 3.5054559425899179e-01 -4.1369034473296457e-01 3.9569131878524549e-01 2.4363021344420832e-01 -3.2822600957875187e-01 2.9461750109684347e-02 -2.5692648025217701e-01 -2.9459402669386747e-01 2.1972919843616781e-01 -2.2023231472391022e-01 7.8973581631930329e-02 3.8399479092775923e-01 -7.2487865786407249e-03 2.6356219055798735e-01 5.1838556907506196e-02 1.9931685803659818e-01 -8.6184849964836052e-02 -1.7596853146576560e-01 3.9856428588640447e-01 2.0276555044571806e-01 3.2622754677365357e-01 -2.0498370174604258e-01 2.4434702962535082e-01 -2.0356072969152358e-01 1.5230458636687585e-01 6.2355648845039656e-02 1.3006490658421940e-01 -1.4084040110364252e-01 3.6116643389605643e-02 -1.6653449113358335e-01 5.6476291243445402e-03 -4.6206495111194582e-02 -3.0963704747342319e-01 -4.9326277758242026e-01 -2.8556329366063155e-01 2.3122219692764365e-01 2.5965386342701846e-01 -1.0320305907646214e-01 4.7043067280494938e-01 -8.3497036294601334e-01 9.7584738644014499e-02 -2.9402638337479597e-01 3.0393948138798388e-01 3.4576742672197180e-01 2.5866527387716304e-01 -5.0599285864366716e-01 -2.0345765977472369e-02 7.5810345822936692e-02 -1.9955170696901423e-01 8.0894202090994599e-02 -2.9706255162761092e-01 -9.1096700537073333e-02 -2.6610076985345632e-01 2.4817752973733706e-01 1.0315497662545252e-01 -9.5063810351331782e-02 -3.4797894298905924e-01 -2.1869219246185189e-02 1.2833534445363216e-02 -2.0604913186570206e-01 -2.9005995496543285e-01 7.7679452388885904e-03 2.3835033547231371e-01 1.1808246093874881e-01 3.5801473076141638e-01 9.3010538731790340e-02 -1.2133603213111510e-01 3.7776189181313258e-01 -1.5000477222943998e-02 7.4136721836202346e-02 -2.9255756769305401e-02 4.0398116137849577e-01 -3.0541534916705954e-01 -2.6211664341805879e-01 -1.3766566437425637e-01 -3.3424358614925032e-01 2.5982347470064504e-01 -5.6029947763900780e-02 -3.2952423369482514e-01 2.2503272247408374e-01 1.4736414478905385e-01 3.4066951856653488e-01 -2.4322911857469326e-03 6.0661181496230697e-02 -4.4126593087946775e-01 -3.8189120972433011e-01 -2.9289801936462852e-02 -1.8737117811172768e-01 -3.1849616793905483e-01 -9.7777484025710404e-01 8.0963621299072835e-02 1.4157222308764472e-01 -3.3406904035461632e-01 1.1359458079862406e-01 -5.3332718639642951e-01 2.1334850244095691e-01 -1.6941016893352190e-01 -1.7307437645473320e-01 2.1920641759206172e-01 4.1275842287979786e-01 6.0207155164274262e-01 -1.8047716055971411e-01 -4.1085908076344796e-01 4.9933372291919700e-02 -2.3299102250528358e-01 3.7344500833343043e-02 -6.6670449888366301e-01 -4.9578068230684613e-01 -4.8897657876710299e-02 -5.6039965273034821e-02 -7.5504857943805792e-01 -6.9664298579209327e-01 1.5757912617044925e-01 3.2831844798586618e-01 -6.6153694869517790e-02 4.7798493895295630e-01 -2.6379950393297719e-01 2.1649255501989956e-01 1.6025421895607153e-01 -1.1304136157762362e-01 -3.2624365506751352e-01 1.8889809113451841e-01 -2.7018510262787832e-01 1.3343828258685133e-02 -3.1170819990234692e-02 2.3472994870347930e-01 -3.3690608713669523e-01 -2.6408683117682441e-01 -1.1112072326994590e-01 3.2649687723943616e-01 1.8949483726308983e-01 2.5644991068206224e-01 -1.4042093369272304e-01 -1.6851149395268736e-01 1.0609191631837236e-01 -2.7889579263848729e-01 -1.5342819588298215e-01 3.0245668426914762e-01 -3.8257102503728724e-01 
      </Weights>
      <Biases rows="128" cols="1">
        2.5600981980328663e-01 -3.2721449378800072e-01 -3.9765255933255411e-01 3.1639305628039299e-01 3.2495692350620209e-01 -3.7200110322472818e-01 -5.1191409816063560e-01 -2.8630440677153973e-01 -3.6965608785118459e-01 -8.9623549827252746e-01 1.0838890826636187e-01 -3.4973179891293932e-01 3.0634689195386672e-01 -2.2971495980434176e-01 -1.4948731858314596e-01 -2.3246171005702226e-01 1.3720081722143981e-01 -2.8378560768619415e-01 -3.3942805833154299e-01 -4.0287410799278661e-01 2.7075966358822112e-01 1.7049990492313274e-01 -1.6106436275944166e-01 3.3702555830109754e-01 -1.7958735568828621e-01 -4.2508077336212213e-01 4.4848622643751301e-01 -1.0025816476378722e-01 2.0308304115171866e-01 -4.0512746787230219e-01 3.1701682189660996e-01 1.1160892739756344e-01 2.3370627917601838e-01 -7.8516347897504268e-01 3.0194566688557262e-01 1.1917986312712323e-02 -1.4557270653495813e-01 -5.8486711048248119e-01 -2.6861431237590366e-01 4.1213300748139871e-02 -3.6067419539862400e-01 8.7628346985192701e-02 1.4890113132748969e-01 -3.2303811736327670e-01 -6.9009738577092167e-02 -2.2580356872577484e-01 -6.6997802459964950e-02 -3.1059039028808988e-01 -7.4924441146185197e-02 -2.5466744223627874e-01 2.1246917425527395e-01 1.4799779124143481e-01 -1.4147940665571562e-01 6.0795671932309850e-02 -7.5949704503927892e-02 1.3084895196182600e-01 -9.5574796495752096e-02 -4.5303617377126398e-01 -1.2121851722581325e-01 3.3583902907309987e-01 -1.1946557343367410e-01 2.2332155499773754e-01 -2.4103202941390481e-01 4.8836433559744374e-01 -2.8882358810814346e-01 -3.1838620733761375e-01 1.2817245614828973e-01 -1.0681624359253154e-02 2.6843772978681785e-01 -3.8528348994589073e-01 1.5319460129126611e-01 -4.2622186354226510e-01 2.1718975486225142e-01 1.0707581845960583e-01 -7.0110139385561132e-01 1.6187470372514517e-01 2.0840354654225593e-01 -4.9387535628233871e-02 -2.4569402354999220e-01 -3.9441147878215521e-01 1.2662750025315228e-01 -2.9424060808680891e-01 2.7437828067792880e-01 -3.3873965527763727e-01 3.2408242754725802e-01 8.1005260663624540e-02 -6.0197452284238395e-02 -4.5836510156916671e-02 2.1321410004269542e-02 -5.2101006382579274e-01 -2.8759990692824255e-01 -1.3125456271486906e-03 -3.9743193705041158e-01 -6.5995730913155581e-01 2.5937884732096328e-01 -2.1264635165426429e-01 -1.8689727793383437e-01 2.0187539332071053e-01 -1.5239895454168667e-01 -2.1751040578573055e-01 1.5762819645186116e-01 -1.0150642477921562e-01 -2.8216302970447676e-01 -3.6922386815877256e-01 3.9073138277356916e-02 5.6468089136457518e-02 -4.4309735897248553e-01 6.0556011072237285e-02 1.4120134136965914e-01 -4.4347792171007261e-01 1.1857772637783415e-01 1.2917183230776333e-01 2.3449731172328231e-01 -1.5956696363470094e-01 3.5763146885852948e-01 5.9650680413986502e-02 -3.8636016477415780e-01 4.2270998526419690e-02 -5.1547371117355145e-01 -9.2683547643841638e-02 -2.3844071679496928e-01 -3.6936051806453729e-01 2.3631558472873135e-01 -6.9428463238980875e-01 -2.4211334215935057e-01 -5.5484345757446607e-01 -9.9073434656989950e-02 1.5906973270773783e-01 
      </Biases>
    </Layer>
    <Layer ActivationFunction="1">
      <Weights rows="128" cols="128">
        -3.5556675052626921e-03 3.5383841660815436e-02 9.3473966727805641e-02 -9.6705262360846270e-02 -5.0056978804431565e-02 3.2941574465890341e-02 -9.9254984923898178e-03 -1.1206678809432252e-01 1.1762430835730607e-01 -6.7540983085343703e-02 4.2474433195456442e-02 3.8569967843840224e-02 -4.3071091425360983e-03 -1.1825818450544544e-01 3.3689816848351234e-02 -3.3708877547582332e-02 3.4172471399935753e-03 -8.7421554441664030e-03 -3.2873182735570189e-02 3.7021509337961146e-02 9.5236951925701072e-02 -7.9500137663025466e-02 9.0545699872650017e-04 -1.1925104762340379e-01 -3.4154879667995207e-02 -7.0198605933278660e-02 -1.1258004290681775e-01 -1.2941507660725740e-01 7.7179323834769969e-02 6.9945960116934006e-02 3.0644247296743324e-02 9.7976694515689591e-02 -6.3786037901640044e-02 5.0683035998144922e-02 3.7719435266651641e-02 6.1456085042259016e-02 -1.2610756111011806e-01 -1.2132692677719898e-02 -6.3153131742604479e-02 1.8832208042605818e-02 1.1310262605014998e-01 -1.0256265798246417e-01 -3.3573019817216491e-02 -2.6539979889914925e-02 -9.4470505630167775e-02 -1.1891621313507678e-02 1.0368186943944682e-01 -4.7232749499855620e-02 1.0979308199357359e-02 -3.0409100403809456e-02 6.8559034048043005e-02 -1.2720248176964166e-01 3.8984980682300746e-02 -6.2072982107272988e-02 -9.8625231239389988e-02 3.9717235397808491e-02 -5.9113968206408081e-02 -3.7520377127937517e-04 1.0791170005844672e-01 -4.9409557068250100e-02 -1.1994028609732676e-01 -9.6821465102250523e-02 4.4445383146843168e-02 5.9313334718273984e-02 -1.6604231179138836e-02 1.1612889442376061e-01 -9.9062973703761839e-02 -1.1597912312272546e-01 4.5289914007053109e-02 -4.5079079233814379e-02 -4.7450371085259986e-03 1.1502971653254669e-01 1.1670082622633936e-01 6.8141357381655832e-02 1.0523718526543050e-02 2.6063603327087996e-03 3.1300142227582942e-02 5.5562239180605669e-02 6.7126925344537305e-02 2.4102407625538939e-02 -2.1357284915339232e-02 1.1238391344599244e-01 -2.8937574188162098e-02 -8.9980793662235881e-02 -1.2171418601356399e-01 -1.2420597415681613e-01 3.9423634036481157e-02 -1.2945510381428690e-01 9.4769707414535664e-02 5.5282901255971878e-02 -1.2880645897357842e-01 -5.1802786426122432e-02 -2.1589681931247703e-02 1.2710102039769713e-01 1.0559294647806036e-01 3.2722921413846015e-02 -1.2944204684150359e-01 5.2589323684671403e-02 -2.7606612412712728e-02 -6.5851207138049039e-02 1.7822059924492109e-02 1.0111743557581487e-01 -9.8770322720696663e-02 -3.8278529844540279e-03 -1.6466250726690522e-02 -5.6006931560479659e-02 4.2708485756949986e-02 2.9974174241089436e-02 -4.3320929087416679e-02 9.0350625593117462e-02 9.2108184559955245e-02 -5.1235245778367119e-02 1.1686393676743018e-01 -9.2584897423535303e-02 -4.2481497789808739e-02 5.5175586553029586e-02 1.2501235103708845e-02 1.0591165460921799e-01 -3.3117209605946732e-02 -4.5765397783643587e-02 7.7573292505264541e-02 -1.1384347422267035e-01 -1.6686631160897650e-02 4.3799036627245609e-02 -7.1196695862448547e-02 -1.1564232275973417e-01 3.0678298435310020e-02 9.6715989317705753e-02 -4.9321961236920002e-02 1.1534702189912413e-01 -1.1764957528344461e-01 6.7274470597687583e-02 1.1011048924523721e-01 8.1927694502010290e-02 8.4596432992656956e-02 -1.1573171992576710e-01 -1.1081709062691990e-01 1.7356599080574082e-02 -4.9022910052105954e-02 -1.4549499402670930e-02 -7.9310721030666272e-03 -3.6191250080719703e-02 -5.1151022519205461e-02 -2.3671047036394072e-02 7.3184601257993767e-02 3.7034834294637747e-02 -7.8404313092571662e-02 -2.7468193525438642e-02 -1.1109466579949275e-01 5.7278905292077242e-02 1.6215928709342076e-03 -8.0340839181435419e-02 -1.8317651691139331e-02 1.3622101733336286e-01 -7.3612863489561253e-02 -1.4160280243469506e-01 6.1268757939651433e-02 -2.2195768913162169e-02 -2.3385674433965397e-02 9.0962540876026621e-02 -6.1906377805395658e-02 -2.1128377865134565e-02 6.2813972735598245e-02 -3.3091771588840337e-02 6.1724885501045559e-02 1.0272449953209835e-01 1.1493182425241945e-01 -1.2285320797546162e-01 7.5836557734356630e-02 -3.2197892948499528e-02 -5.2149163083504060e-03 -5.7785374695853417e-02 -3.2184889272206432e-02 3.0609882800015135e-03 -1.6875000448959978e-02 2.0959311132877093e-02 8.1875660488150079e-02 -5.6985429863124826e-02 -5.0116441726559921e-02 1.0098536189451450e-01 -1.4259335200454819e-02 1.5973982097690564e-01 4.4671688663808447e-02 -2.4029043617752880e-02 -1.4834722032888723e-02 1.3479139400275358e-01 1.2473590046274158e-02 -5.7177216421688730e-03 -2.2179097477004500e-02 1.6158212099193863e-02 1.2779054446744953e-02 -4.0573979249687003e-02 4.7784796946275278e-02 1.0101155370601141e-01 -4.9005878006918024e-02 7.7252457467338276e-02 1.2880002306912669e-01 -5.7664357720745608e-02 5.7817908893967221e-02 4.1755702883814728e-02 -4.6424707886177738e-02 6.6610792249688217e-02 -8.4508349165763830e-02 -7.6741509485586473e-02 -8.5757225837364795e-02 -7.9461530673875652e-02 -8.4707548097576704e-02 -7.8007146441278166e-02 -1.7752844644510008e-02 1.0323919519580013e-01 -8.9869832697924742e-02 -7.4173610101255005e-02 -8.1758527503648315e-02 -6.6063017816144778e-02 5.2484509443839408e-02 -9.7322531126307260e-02 -1.4614984874034486e-03 -2.8305678225686993e-03 -2.0026976354714020e-02 -3.3841888336223938e-02 3.7460248975387356e-02 -4.3258130034583578e-02 -5.1871090184027170e-02 9.2246976554156965e-02 8.0097510605053365e-02 -5.0478209611925860e-02 1.6596536200830313e-02 -7.7346204410330948e-04 -3.0469714973538588e-02 -1.7791319509385332e-02 -5.9319572328997407e-02 -9.0098057459810491e-02 4.0790594514735545e-02 -5.2999057140018617e-02 -9.9851378485646139e-02 -7.0198647871847791e-02 -1.2028866316889589e-01 -7.4970885781138710e-02 -6.3431436903329821e-02 2.6531707841119738e-02 5.0606467578813621e-03 -8.4985729715255795e-02 -5.6749206536122927e-02 3.4848445538559751e-02 7.2531324362306018e-03 -2.7713360684099514e-03 2.3858945125306712e-02 3.5247614844587535e-02 -9.2249967240740374e-02 -1.1152134687659358e-01 -5.9766274797960699e-02 1.0337727891183832e-01 2.2632678859199565e-02 -3.0695126351124407e-02 -9.0139979291625746e-02 -9.3899849031735608e-02 2.5211280599115528e-03 9.6741283535564881e-02 6.7035585449769491e-03 7.1934504343231009e-02 4.8636603001986307e-02 -7.3482923390347218e-02 1.0916860396689414e-01 -3.3039002644009156e-02 8.0035760109148091e-02 -5.8138803587203150e-02 -2.8093744773553659e-02 9.7346821061340100e-02 -8.8294362016972064e-02 -7.4872484839403938e-02 7.2181831980894881e-02 -8.2976936722464492e-02 -1.1705609563368524e-01 -5.9757199862325826e-02 1.0734404119903944e-01 -7.4074225984784595e-02 6.7555344901056302e-02 7.5204833497575119e-02 -1.1616529319804805e-01 5.3214403369545561e-02 -9.6986188974811718e-03 -1.1487233313550549e-01 -1.1874481945693974e-01 -9.1833367312809291e-02 -1.2848728990631816e-01 1.5150448025153156e-02 9.1312910339960626e-02 7.3887288325941561e-02 4.2662052912656463e-02 8.1063549071218197e-02 4.3254406206351015e-02 -2.9922271826629310e-02 1.2467610387376522e-01 3.4326774983142704e-02 4.6434571297273949e-02 -4.6149269182333613e-02 -9.5846093039535230e-02 -9.0138004983834147e-02 1.0446459154745977e-01 2.3278657640535424e-03 -1.0423017090783547e-01 3.9430376947769338e-02 -1.2343750333110841e-01 1.0372879457546713e-01 1.2911667708751320e-03 -1.3085853002383022e-01 -9.5278168051760467e-02 8.8305767633656357e-02 -7.2598833068245661e-02 3.3955681006750643e-02 4.4498434531770256e-02 1.0788739249796571e-01 -7.0078755122248773e-02 9.6515637116833905e-02 -6.9533975694222275e-02 -8.3326584064779372e-02 -3.5738015368250546e-02 7.4219182015458018e-02 -1.3918247500332399e-02 9.9983150557494252e-02 1.1747951390923124e-01 3.6300406389755936e-02 -3.3802754064604777e-02 1.0984690481357541e-01 -4.0229911384981831e-02 8.4021820601926839e-02 1.0792780109633041e-01 -1.2466870751723329e-01 -1.2148242879608523e-02 -1.1844361112885250e-01 -1.1275035456183533e-01 -1.1266350945156793e-01 -6.7251885448000259e-02 5.3229419896613492e-02 1.2435185053876781e-01 7.1947243282041481e-02 -5.7704068059319352e-02 -4.5738774248879462e-02 1.1973075037146258e-01 -1.1437991021457617e-02 1.2260904628603590e-01 -1.1560481443115712e-02 4.9631251357923130e-02 -1.0248274144082824e-02 6.0789666904325192e-04 -9.9271416844713106e-02 3.5653277386911181e-02 7.0377768997346254e-02 5.3640648245014230e-02 7.6782846270944116e-02 -1.1643063489088067e-01 9.4793956377793323e-02 -9.0202401718550276e-02 1.0184015675875048e-01 7.6407379966771868e-02 -9.8758369597047327e-02 -3.8538511010681849e-02 -8.5824672664729547e-03 -7.3138885898364958e-03 5.5913234580418386e-02 1.2006844328606249e-01 1.0925990257439454e-01 -2.1236450655384844e-02 4.5212766682292876e-02 -5.6703589558858590e-02 -8.8056426136428459e-02 9.3492631265645026e-02 -5.0720932159598928e-02 3.3263778300831152e-02 -1.7399920126742918e-02 -3.1420828903856599e-02 1.1914118711166054e-01 -5.7038494646592788e-02 4.6304439950232944e-02 -5.6327070819887103e-02 1.1121523861010469e-02 1.3802692871945157e-02 -1.1362145894451885e-01 -2.6489984175680718e-02 2.5525334395716049e-03 -7.6919959531352083e-02 6.7009275262635282e-02 7.8642909206105768e-02 -9.5304491175278089e-02 -1.2062445217703220e-01 2.2695400803020512e-02 2.8829532858834578e-02 -3.2067481115820831e-03 -1.7481944826685886e-01 3.1933014637820563e-02 2.7950098131599944e-03 1.2367939285469048e-01 -1.9734053235353915e-02 -2.7876746986602752e-01 1.0345124139679239e-01 5.9596958829655308e-02 -1.9611457133557001e-02 1.1720448046411060e-01 -4.2657425578983880e-02 -2.8125871652075845e-02 9.5726127241314143e-02 -9.8873635595500359e-02 2.5251072117907728e-02 -1.2253032419141513e-01 7.6075421306172645e-04 -2.5518797279433333e-02 1.4454888845210401e-01 -4.0474692676887927e-02 9.8406675087941820e-02 8.2157865578454656e-02 -5.9121682932493105e-02 -5.4314564495508671e-02 4.2085869460346217e-02 -5.7552483431968053e-02 1.0108675356614048e-01 7.0512237948202341e-02 8.7036581587120576e-02 5.6382708482096588e-02 -1.8179623646578925e-02 2.9241219943984934e-02 5.1427647714360585e-02 8.3420022848130410e-02 4.1486461873144476e-02 -3.7549480321231989e-02 -1.6145371188453500e-01 -6.8473122912649967e-02 1.1660722899233333e-01 1.9814795367512758e-03 -1.2022314811694362e-01 4.0784395421935585e-02 4.0152170984168747e-02 9.2847696462936599e-02 -8.7579541592625779e-02 -2.8290237008862490e-02 6.6471213945907950e-02 7.6889169220632728e-02 1.2055775186302822e-01 -8.3237116939488386e-03 1.4674003941934431e-02 1.0592443780966174e-01 -4.6189091689029772e-02 1.0075140437979982e-01 -9.4523726237096383e-03 -1.8150951707201154e-01 -1.7112040165083952e-02 -1.5042554096193361e-01 1.2824473965498787e-01 7.1910520307093162e-02 -2.7069506816083246e-02 9.9222198248332061e-02 -3.2616519262085720e-03 8.3451826795466699e-02 6.4060217086259627e-02 -9.3029283922355210e-02 3.3694644407658496e-03 2.8850281949782366e-02 -1.2864027975615144e-01 1.3165179268323434e-02 -9.4653923743110255e-02 -9.0149011788315095e-02 8.1478961279953938e-03 -1.1939901642337039e-01 8.5573979288268275e-03 -4.4554572411817372e-03 -2.9068873594774929e-02 -9.7006143884252230e-02 -5.4600952181623086e-02 2.8843590497543443e-02 9.2447238826251377e-03 -2.7191357923289330e-02 -2.4398589871088363e-02 9.6107320262480159e-02 1.2789911209019303e-01 -1.0978986587225646e-01 -4.7398783926319368e-02 -4.7354807655572435e-02 8.6944456127698438e-02 -2.2470780504384788e-01 -2.2784689429477645e-02 2.2992207336261658e-02 -5.8329030657710293e-02 1.6611613557737839e-01 -8.9404099432020670e-02 4.9666803534361106e-02 5.5175504481810599e-02 -7.6739867508883869e-02 -7.2184455771186012e-02 8.2350583895748314e-02 -4.8642211554544353e-02 4.2910604430927327e-02 -2.2806438931157896e-01 -3.3213571338229601e-02 7.0419694471734448e-02 1.7301476023149107e-01 3.1572345994294704e-02 -1.2677011506183045e-01 5.3310454899178059e-02 6.6718542379208157e-02 -4.1060191423875410e-02 -6.6567133601944883e-02 -8.4316635369157941e-02 4.3390216316591158e-02 -1.3407334332461657e-01 -1.2271879982502000e-03 -3.0349734445614628e-02 -4.8412408154029404e-02 4.0409926631514255e-03 -1.5492919935480795e-01 2.9455984822343934e-02 -1.6358170951887452e-01 -1.1832355632545688e-01 -1.1647568785564655e-01 6.2287408165917754e-02 -7.6030922830829129e-02 -1.5740501569338046e-02 3.2324658527822937e-02 -9.2662426787848157e-03 -3.3544811434946205e-02 -1.3003691433625489e-01 2.8002627860347108e-02 7.6154795365587530e-02 -2.3056763206798624e-02 2.9523464460707274e-02 -2.6465802006801535e-02 1.0822222862232442e-01 3.8842744373708209e-02 -9.8170532680033507e-02 6.3461818854797679e-03 3.3641618952476799e-03 3.6811562286919897e-02 5.7721365535736993e-02 -1.3271550677072429e-02 5.1646971418867711e-02 -1.1268037882032950e-01 -1.1505049589298637e-01 -1.5245846136203780e-02 -8.2335655251119022e-02 -2.9802783356474914e-03 4.9538790660609892e-02 5.7341005679404445e-03 9.5852521584018135e-02 -8.6827546065310155e-03 -1.1306191015875394e-01 -1.2697232788319993e-01 -3.0195022176545367e-02 9.2905870304656024e-02 9.8605266417615949e-03 -9.4535604557325181e-02 -1.5570926984481420e-01 -7.9115410281418191e-02 5.3085276658882373e-02 3.5463909694677949e-02 -1.0226988978387382e-01 8.3873210698641787e-02 1.0964172826729141e-01 -7.2322480808919509e-02 -4.4674804128380374e-02 1.0430489167043556e-01 6.6495067783645820e-02 4.9067663843117365e-02 -1.2402815359113456e-01 -3.5148745878267385e-02 -7.7430672157631011e-03 6.9092647580383679e-02 2.7496397719036749e-02 2.8989255341963695e-02 -6.1986275818943767e-02 -3.6601863750699550e-02 1.6985956487265908e-02 -2.6941628751011922e-02 -7.5435207108918351e-02 -2.9524434627350177e-02 7.8456215147253955e-02 7.3479966430811283e-02 7.5171966010578573e-02 4.3551986649972924e-02 4.1949052730472142e-02 -1.2406173937858686e-01 8.9137300151053742e-02 5.4224965331287164e-02 -2.0896167348476768e-02 -7.1908165665149681e-02 -9.5069453570218468e-02 -1.1643236828590517e-01 -1.0414550736596644e-01 -3.9161164136586102e-02 -1.0961447020677155e-01 -7.7087434440808386e-02 7.1476490340046966e-02 1.9799188039953618e-03 -9.6430242066867816e-02 -5.2593177449283074e-02 -1.9311351136884322e-03 -5.8183588996170960e-02 -1.1433857989398111e-02 -1.5696814969459830e-01 -2.6384800881941700e-02 -2.6757791198203273e-02 -1.0384594163126466e-01 -1.2466578384851397e-01 4.0904874189984064e-02 1.6161738236692501e-02 -7.3521592183205167e-03 -8.9890611325575701e-02 1.2364690145484188e-01 8.8076688538650263e-02 7.7009618616145581e-02 -1.0537511685884661e-01 7.2038245850369415e-02 1.0694700617472200e-01 3.5838181199991728e-02 -1.2180042110694238e-01 5.9597238081809042e-02 1.9352737609302461e-02 6.3524736358127734e-02 6.6927201991545157e-02 2.4051178837533608e-02 -3.4008944060102797e-02 7.2112594014643205e-02 8.1059347051507413e-02 -1.4310912854826250e-02 -1.1411860634293755e-01 -5.4740068234672479e-02 4.8607689438763587e-03 -1.1922707435776847e-01 -5.1684810157794784e-03 -9.9031392054087314e-02 -6.4913308465805050e-02 -1.0505627571656805e-01 -4.6286473001429266e-03 -1.1729135331414713e-01 3.5809466171322302e-02 -1.0198960122325929e-01 -5.7052667529403633e-02 -5.4753656817633896e-02 -1.0576186593181677e-01 -4.1290817649319196e-02 -1.5552729036040355e-01 7.8240913265503597e-03 -2.9752865106299434e-02 -7.3639557298214323e-02 -3.0405558226057037e-02 1.2654763988013082e-02 1.7013642943575675e-02 -8.3015413203943331e-02 -9.7394253354278551e-02 -1.4331068249115828e-01 3.2041827795672828e-02 -2.0042616696956525e-03 1.0766110378698034e-01 2.0837888870959493e-03 8.8265901597323379e-02 -2.3081044769403766e-03 -1.1550990583036101e-01 9.4785801245745233e-02 -5.8481529183352539e-02 -7.1945407088407992e-02 -6.4116405553775763e-02 1.1816933861218555e-01 -9.0592586144146448e-02 6.4072843968550300e-02 6.3683176379572312e-02 -4.4260261067434789e-02 -9.3779388242147294e-02 1.1744064069936677e-01 1.2177096101822643e-01 -9.9059871557239790e-02 -7.9169773473541302e-02 -6.9968721797572325e-02 -7.7413967731595160e-02 -9.7980847597170947e-02 5.4268584656991241e-02 -6.6292331404890881e-02 -2.3048192542375188e-02 -7.1015156531742674e-02 6.9082085863638648e-02 -7.0870406894638721e-02 -2.1848226151434565e-02 -1.2846271894395817e-01 -1.1483534884672910e-02 5.8864052936572327e-02 3.1406333854970485e-02 1.1346344334177652e-01 -9.6345525932118536e-02 -4.5320278480573510e-02 9.8850849822087694e-02 4.6188433905732525e-02 -4.2129012121611298e-02 2.9267668349621447e-02 4.4163423103305649e-02 -7.6524990535392412e-02 -3.9114336370415295e-02 -6.3148082146168840e-03 -6.0935211288262077e-02 -9.8770038322258377e-02 -4.4591450833379211e-02 4.6273864495306939e-02 1.1071889972416764e-01 5.8564972322346039e-02 2.5210107527888940e-02 -1.5935731397946767e-02 2.7223127384560845e-02 -6.8326549752352264e-02 1.2678456377484828e-02 8.3774986110024333e-02 1.1126661482214371e-01 2.1292342077643973e-02 1.3590316624603934e-02 -3.3756749278160164e-02 3.2595479255083049e-02 2.4839203656754912e-02 6.5335538092512829e-02 -1.1418844362388482e-01 -1.8026760379972865e-02 1.0128768367925048e-02 -2.1072917394439318e-02 -1.3069983802522822e-01 -8.7373918764834912e-02 9.7581795811583966e-02 -5.2745635400324627e-02 7.5763892148706158e-02 -4.4680157314330227e-02 -6.8941197249274028e-02 -8.8850516883544381e-02 7.6518660496032065e-02 -9.8168759673833456e-02 -1.0716038721089473e-01 5.6459029248010405e-02 1.2182025423714643e-01 4.7004933011540920e-02 -2.7420288958566696e-02 7.4500228864987278e-02 -8.7432541199734384e-02 1.1648024986657001e-02 4.2984251041626689e-02 5.6099256665660291e-02 -3.3701945372730975e-02 -3.8534753339262727e-02 6.2551177466390509e-02 -1.0300081901001233e-01 -3.7591056232122527e-02 6.6471250030567017e-02 3.6524473401278595e-02 -7.1261608719014699e-02 4.1770049862414046e-02 -4.7748882601777627e-02 -5.5087830307374158e-02 -7.4706481460340410e-02 -5.6553239917146524e-02 1.3496632386702234e-01 7.5336465111925821e-02 -3.0222195685504601e-02 -8.1514658303148663e-02 -4.8426306719217410e-02 -7.5026860863128292e-02 2.0826304132063028e-02 -1.1237568472602340e-01 -9.8451258513991709e-04 -7.3954037005256532e-02 5.7416468362985688e-02 1.0937573250508292e-01 -3.3669732735337014e-02 -2.0346453246073360e-02 2.3249257028885566e-02 8.3528370729109361e-02 -4.6692547439974912e-02 5.3247263476722838e-02 -1.2697481828737822e-01 9.4792679871347249e-02 -1.0032217468077873e-01 6.3573131585810905e-02 -1.2238405126139512e-01 7.9691459164806092e-02 -1.0520594045907834e-01 -1.0105890938909472e-03 1.1853673039634516e-01 1.1285237954321568e-01 -1.6374911335668541e-02 -1.0908984023325695e-01 -4.3198195438426921e-03 -1.2541997673152118e-02 4.1894298691288016e-02 5.8785972903595080e-02 1.2479205405031100e-01 8.0608439078238739e-02 -1.0359559838680350e-01 1.1259118807992680e-01 -1.1166991079447722e-01 1.1409620502531632e-01 5.7284026672159392e-02 3.9913229586495035e-02 -1.1866489566205016e-01 1.2198329470852276e-02 6.9695033976821655e-02 1.0622750352100895e-01 -1.3165203753811637e-02 9.5911647902226324e-02 -4.3843177465035889e-02 8.9822305067421906e-03 -9.2204026335403463e-02 -3.3114508782674364e-02 5.3118023609643426e-02 3.2297229263719696e-02 7.5832764161727004e-02 -8.0848728214339013e-02 -2.1481519720005362e-02 9.0575456636452625e-02 6.8707235669004288e-02 -4.7438838873200079e-02 -1.7550055615242859e-02 -2.4568519405823729e-02 -9.0260653113935913e-02 3.9908982526338135e-02 -1.1262066545371760e-01 1.1189193752374674e-01 -1.1043054161705312e-01 -2.9194959491775509e-02 -2.3596332286871909e-02 -1.0097817672696435e-01 -5.1346970037509952e-02 -4.4118500585772581e-02 -8.8365307890981959e-02 1.1181454476225479e-01 -1.0518410475694195e-01 -7.5331871650979607e-03 -1.1573554472004810e-01 4.6688940563962373e-03 1.8141234518352154e-04 2.3110081263152157e-02 2.6615818719048237e-02 5.4120814747705560e-02 -8.5054445336964324e-02 8.0446126260677164e-04 -7.8663638148310222e-04 -1.0059035850845510e-01 1.9827561267981349e-02 5.3882902760136464e-02 1.0019677101425524e-01 -6.6536563553288311e-02 7.8055201992137946e-02 -1.0240256650473170e-02 -5.5679554796871158e-02 -2.2772587968152330e-03 -6.3225665314671026e-02 3.0492755187181593e-02 -2.8881407269731815e-02 1.2347525639767735e-01 4.7210986397663524e-02 7.6455551757576748e-02 6.9826255663469977e-02 1.0256126834923567e-01 -1.0958717289603098e-01 7.6955460331897041e-02 -8.5030181399067609e-03 -3.7017719915257999e-02 4.6717497393653391e-02 1.0455398905856181e-01 9.3113643243081579e-02 -8.6597283855066431e-02 -1.2879677970062885e-02 5.1433063500817430e-02 1.2253567213969672e-01 -4.6031051987702555e-02 3.7616244705840872e-02 1.1419098096651053e-02 3.1067822662597406e-02 -8.6773257489746861e-02 8.7939499597033691e-02 -5.1946262604108548e-02 -1.0315372934564185e-01 5.5787993752316196e-02 -4.3716264844632577e-02 -8.2752168119797589e-02 -1.1476617184651683e-01 -2.7524025661280252e-03 -9.0650400922956842e-02 1.9889604405137939e-02 -2.7735742682474980e-02 -9.8647888642584211e-02 -6.2678819797441693e-02 9.5352083199531645e-02 3.7786361439588856e-02 -5.2308139914434962e-02 -2.9108787136425104e-02 3.6371328033387981e-02 -8.7886276852279274e-02 -2.4041508996902744e-02 -1.0991003598798060e-01 -1.3224169854376483e-01 -4.4920805267915614e-02 -6.2307500032158895e-02 -1.2187933649241622e-01 1.6791617585931642e-02 -5.1483298199896589e-02 -1.1744709074960683e-01 1.1021861288113353e-02 -9.7427233049945036e-02 -1.6695231473749145e-02 -1.3171971329860933e-02 2.8261439654890697e-02 -3.6646661284956625e-02 5.0812762023223552e-02 4.9250489755287737e-02 -6.8351347610664678e-02 -3.4937437050889142e-02 1.5637486562147234e-02 -4.9313369006385693e-02 3.1918722693886825e-03 -6.9960208059209023e-02 -2.1940581292148719e-02 1.1631828625364812e-02 -6.7929351733078361e-02 -7.7138709687699397e-02 -6.7315064263804014e-02 7.8743000757758017e-02 2.1895049405382415e-02 7.1456169136659795e-02 5.2977580658920380e-02 1.2335666847800550e-01 -6.1603236533397519e-02 -1.1851363481631727e-01 -8.6319505771485255e-02 3.0591488772867593e-02 -3.4485990305932472e-03 -8.5112751487102983e-02 7.6549340397080376e-02 5.4485134660618217e-02 -1.0019065782690796e-01 -8.8038108047652219e-02 4.8402700405104110e-02 -7.0450678556118140e-02 2.2999030458883917e-02 -8.0670728151610409e-03 -1.0939830627369358e-01 -1.2371414089358594e-01 -4.9669950429617901e-02 -1.0068514537789730e-01 -3.6982772703817099e-03 -1.1156232628078779e-01 6.0922426896672287e-02 -5.9419529440866502e-02 1.2281150209971560e-01 -4.1432540876455481e-02 -6.5240450904230033e-03 -4.0448966325554326e-03 1.1803336052697784e-01 5.2257754915215173e-03 9.6874675690313883e-02 4.8612216622713811e-02 -1.0165660780423934e-01 6.0539838590766018e-02 -5.8034237565968670e-02 8.2205556589023292e-04 -9.6556635292672721e-02 1.9476953435044839e-02 -3.8718061647149145e-02 4.0115281117512197e-02 6.2346961113325314e-02 -2.7115484924840869e-02 -1.0704640633048225e-02 -5.4410045569253544e-02 -4.1724506322443296e-02 6.7199271612984765e-02 9.6549016730232140e-02 2.8957310566308021e-02 -7.6180582792243129e-02 5.2572071862483076e-02 1.7806685196187364e-02 1.2118394123863589e-01 -5.1917621931402277e-03 7.1938760744032063e-02 1.0943820092921556e-01 -7.8874089558546551e-02 -6.1475005788564449e-02 -7.7284902172655837e-02 -1.6855797117064607e-02 6.4752059316939517e-02 -9.9038155432701044e-02 -7.1307997031373013e-02 7.3296220111686586e-02 -9.6008996684278744e-02 -8.6395302680181418e-02 1.1603526486106527e-01 -1.4615854915519625e-02 -3.3131914973480339e-03 -2.9845012848371895e-03 1.0487873690084075e-01 -8.8068672508520046e-02 -5.1182347656451065e-03 -3.8649606928337514e-02 -4.6900671613698111e-02 3.5165575222524330e-02 6.7488664788949118e-02 2.8805507769389779e-02 -1.1518671425297144e-01 -5.3036240282615811e-02 8.0057335309777877e-02 1.1310178291882117e-01 6.0448703805416178e-02 -1.0163773603879533e-01 5.8828223969094415e-02 1.0562696596634054e-01 1.2244954393160694e-01 4.2031883758852320e-02 -9.0387297551074303e-02 -8.0951669699997494e-02 4.9090999867019980e-02 8.4852041261156405e-02 9.3733369314362061e-02 2.2222659034005637e-02 -4.7211562481996719e-02 -1.0908637658172031e-01 -2.6268826705995136e-02 7.1428988834111501e-02 -1.0055199349824313e-02 -6.1974828635462968e-03 1.3692067183191708e-03 6.1073283932481471e-03 4.6681558845531788e-02 1.7202300501370355e-02 1.3135513019355057e-02 -9.9873017102744793e-02 1.0916131958846697e-02 -1.0374677697400775e-01 -1.2238360139869196e-01 7.0381927229500985e-02 1.6775300670408971e-02 1.0271121126372450e-01 -8.5447407958722729e-02 -3.3749115356569742e-02 -9.6892966996189378e-02 -7.7146503781619427e-02 2.0416154340346319e-02 -9.5955588795337207e-02 3.7807691668120404e-02 1.1461090345677970e-01 1.5786164595702628e-02 -7.4602286172598190e-02 -7.1130434908808576e-02 4.0713008666815494e-02 1.0149461841403737e-02 -6.6244481516603733e-03 5.1861398753531469e-02 -1.2111866331655620e-01 -6.1072331881707485e-02 6.5826974065750596e-02 3.5761944847836367e-02 -3.8083992558040937e-02 1.0091306861481300e-01 -8.2582349317602222e-02 -2.1284720187498989e-02 1.0737057685113471e-01 3.8710667225876273e-02 -7.3325683053221569e-02 -4.6513753086755275e-02 -8.8740771498700168e-03 9.2761424888732888e-02 -5.4478564884302534e-02 -1.0298384865560062e-01 1.0783158679791889e-01 1.2265427176641164e-01 -9.6931405992126712e-02 -6.6015671830912351e-02 1.1750487281286925e-01 -4.1598845429217809e-02 -1.1353855774023311e-01 -3.3492004885503308e-02 8.0913514859562274e-02 4.1501238867041546e-02 3.8831589348097571e-02 -7.8678600312555164e-02 -1.7895673632831122e-02 -8.3271518998221425e-02 -2.4479305507522489e-02 -6.5531000908996594e-03 -1.7728812105046187e-02 -5.6882447588351433e-02 -9.0432304658333268e-02 -8.8068194913563574e-02 -1.7287791796827351e-02 -1.1061265374260958e-01 1.4765674654888976e-02 -3.0986150194713385e-02 -1.2475456751232751e-02 -9.7866661226900617e-02 3.2723970394066750e-02 -9.0842727129826634e-02 5.9081616356409863e-03 -5.0514104411760123e-02 -2.1646685157548595e-02 2.2179028131477211e-02 4.3897249220236072e-02 1.0545053704176273e-01 -1.0745720253218795e-01 -5.1880247577714783e-02 -6.8937326729345740e-03 4.0138532396163419e-02 -1.2310399635797305e-01 -2.6541658777308121e-03 -1.0245500415793009e-01 1.1886279831035459e-01 8.7430953098472958e-02 1.2105322459614060e-01 1.2138552229172699e-01 1.0906474132806059e-01 -7.6919140490088495e-02 -4.6009930989098419e-02 1.0091310046205532e-01 -2.1473961651241109e-02 -1.0040996619920199e-01 -6.1783698664688323e-02 -1.2282944035370044e-01 -1.2366335182186475e-01 1.7781600056643265e-02 -1.3950738417005162e-02 -8.5403251704344041e-02 5.6764862331501159e-02 -8.8128165121657262e-02 7.5209863770238472e-02 5.6042077308304232e-02 1.1707432345761572e-01 7.2427609719916172e-02 1.1346936305854341e-01 -5.5169441360464859e-02 1.2467555764158512e-01 -8.6510276914006742e-02 -1.1166082768654918e-01 8.6905125574907122e-02 5.5381557110111203e-02 -1.1348187350340087e-01 8.5473414447311769e-02 -3.8844786857012972e-03 5.7080287250598501e-02 -2.2327038067557873e-02 -1.0525291030082193e-01 -1.2209847467003992e-01 1.7832044081414276e-02 5.7630665645676774e-02 7.0789365927916093e-03 -3.9782428088650526e-02 -6.5612348758241526e-02 4.6488618883256762e-02 -2.4074173538551971e-02 -5.5251677025437707e-03 7.1312470461963484e-02 -1.0488107589857897e-02 -9.9393957399569341e-02 4.8280011194059780e-02 -1.2606038505460529e-01 -3.6792807197659913e-02 -8.4735679085058361e-03 -5.4340697301852474e-02 1.0122609729385279e-01 7.9705968367004179e-02 -2.4673522964639098e-02 8.5379471066665560e-02 3.5905374993141830e-02 -9.6870061758348280e-02 5.7946137637777090e-02 -8.6516808266367470e-02 1.2112934917167964e-01 -1.1110739228208413e-01 3.2378177120299736e-02 4.5896997077422327e-02 -6.6456826598813593e-02 -5.9497844086006425e-02 1.6201418881644312e-02 5.2454037402589769e-02 -1.1334191672201401e-01 -1.7162462899005715e-01 1.1091418727578323e-01 -1.2745746768708023e-02 8.8027418026958543e-02 9.4961985819451943e-03 -1.2567582746361139e-01 -1.1249613977387292e-01 -1.0821770696042063e-01 1.5285684172111923e-02 4.3048861039272107e-02 -1.7970369999439215e-01 6.0298225842047380e-02 -6.9683676283995605e-02 5.5049494337161949e-02 -5.7648269235169969e-02 4.7184745526210631e-02 1.3502046104400039e-01 -1.0799510256806270e-01 -1.5172595660412147e-01 6.5940374070683913e-02 1.5343584067875007e-01 -4.5447642475883836e-02 5.2726922138592494e-02 1.1093188549873387e-01 4.4684168648799392e-02 1.2354290903990149e-01 3.8709975288507288e-02 -7.3197735119766016e-02 -9.8696271709126648e-02 -5.8254014428719664e-02 1.0768805878997534e-02 2.4029307188951642e-02 -3.3388847357651444e-03 -3.0265910333590888e-02 7.6928814001132580e-03 4.1999794878391471e-02 -1.0337650489538408e-01 -8.5728243761319350e-02 -1.7472980487521386e-01 2.4016299656505972e-02 4.3832589073073108e-02 -1.7671005834476883e-02 6.9629194112194578e-02 -1.3447145955303995e-02 -8.8284753358460158e-02 -6.0737022900630988e-02 -5.3290098655732955e-02 -1.4231466483135136e-01 4.4601471217366108e-02 1.2524245402262532e-01 7.9433664354014635e-03 -9.4833621464054663e-02 1.1948542389369553e-02 8.2510143054362519e-03 -4.7391202337740211e-02 3.9224221701626677e-02 -6.7603883365095568e-02 7.5301218822493190e-04 6.1345158760699250e-02 -3.8724614902672649e-02 6.4062807588541590e-02 -3.3587423021709646e-02 -3.9510849583062481e-02 7.4842681425285496e-02 3.8843000570300691e-02 4.3499154282030328e-02 -2.6239372899266002e-02 -7.4644695975820019e-02 -5.7255027590995523e-02 -4.7772970411857948e-02 3.4075718410578368e-02 9.6174710733475791e-02 -3.9661607339030241e-03 -2.0000653979389073e-02 7.9889662903516151e-02 -2.5559907674597863e-02 -1.0964361871994113e-01 -6.7731519814750049e-02 -6.6393823587624690e-02 8.0736535927536157e-02 3.3773603125242961e-02 3.0472873625782507e-02 -1.3181754182445070e-02 1.4944175075006800e-02 1.0559534820708949e-02 8.0910811238152983e-02 3.3342277084257882e-02 7.4651990209674127e-02 -2.1247962261264505e-02 1.3481899127666228e-01 2.5027232606995211e-02 2.9765341375259154e-02 7.5408920875227992e-02 1.9282464422467619e-02 -8.8217406353489000e-02 -1.0317763115352105e-01 -8.2839577411356988e-02 -4.2467405442584705e-02 3.7423609996546849e-02 -4.9381244513923984e-02 2.9902256962734061e-02 2.5381317318953808e-02 -4.9835729190998788e-02 5.4661362060459656e-02 7.3872920727643787e-02 -7.7700860438319017e-02 5.5354187956345571e-02 -7.8107199007984116e-02 -2.4183196413040377e-02 2.2424225076415699e-02 -9.7802596961787974e-02 -1.1594512306230433e-01 -1.1448996692858210e-01 -1.0986833168558709e-01 -6.1160760472115166e-03 -5.1228965559297623e-02 1.0837725108034235e-01 -4.3797112242773321e-02 -9.0622401381391049e-02 -1.0725760105567528e-01 4.1932832225201951e-02 7.6279694455595640e-02 1.1397147156031968e-02 7.2111059835870836e-02 -4.6736100813177597e-02 1.5987871763506609e-02 -8.8878927604692071e-02 -2.4182871092400551e-02 7.2672521932899276e-02 -3.7681676912638906e-02 -9.8984344984009473e-02 -2.7067490191053263e-02 6.4418013207011252e-02 1.1430744796980964e-01 -6.2367453054734970e-02 -3.3446269605011771e-02 -4.6858773730069879e-02 1.2075839209455889e-01 -3.7425469963244265e-02 -5.4765476542977726e-02 4.5622485768836443e-02 -1.2616592020543813e-01 -9.9098609560002590e-02 -1.1984663010234445e-01 5.0778337646731050e-02 2.4108026014136243e-03 4.0838940745927754e-02 2.9049811478072150e-02 6.7035665376765460e-02 -8.7986020145660954e-02 1.1370495749932431e-01 -7.7001040034218107e-02 7.0887807786065182e-02 7.4977556141499521e-02 -8.5323738019560197e-02 1.2422867871057648e-01 1.1451457250988055e-01 -9.6192921809115969e-02 -6.8878830681394429e-02 1.5875397916583846e-02 -1.1268596219648015e-01 -4.7871281897113784e-03 -5.3556215096139920e-02 -3.1804705786438910e-02 6.0406374273011446e-02 1.1352334410661767e-01 -6.0329809746552110e-02 3.0586953105699317e-02 7.6432583075209629e-02 -2.2317423144252609e-02 2.4550456948213063e-03 -5.2570586277334970e-02 7.0180360575055070e-02 -9.9437714649036460e-02 3.6040308108241048e-02 6.4085627035232767e-02 -2.3330804617475390e-02 -6.4138388581398351e-02 4.4238412985719303e-02 -1.5574956021790872e-02 -8.1373453004940144e-02 -1.1513877347314527e-01 1.3529947661426020e-02 -2.8325977103177653e-02 -1.0075443554387647e-01 2.7068956567482767e-02 9.5218883323483147e-03 -7.6269154707955700e-02 7.8491978231042286e-02 -4.6771256825766688e-02 7.1791091445637098e-02 1.0329475827539257e-01 9.9679284703890939e-02 1.5201708309250713e-03 -1.3029105576543218e-01 8.2074635512026983e-02 -1.1727387898730164e-01 2.1856463451475353e-02 8.5788287653898787e-02 1.0524760092429340e-03 -4.0403182778066773e-02 8.4371621935879174e-02 -3.0853402226142128e-02 -6.4036841766978519e-02 -2.8462479658113556e-02 -5.4086114485455181e-02 -1.1158316933080047e-02 -2.9868098281859969e-02 7.3035097731673063e-02 7.1121394603358895e-02 7.7351343288569782e-02 -3.0984289590596476e-04 -3.8457798813080098e-02 -7.6983134633834799e-02 1.0473395339278020e-01 9.4283221902517395e-02 -6.4951648142193230e-02 3.5596094049193706e-02 -8.5238707461664148e-02 -9.9254821536015697e-02 4.3786973325985953e-02 -1.1984544371482837e-01 -1.1864307212804746e-01 6.5967933234638981e-02 -9.3937831620954041e-03 3.9775722102220828e-02 7.5868092226164113e-02 -1.0777539535460089e-01 -4.0457373690339270e-02 8.1392895853565447e-02 -6.5363333463432996e-02 -7.0368718133059421e-02 -6.8336070970206234e-02 -7.0017616041991734e-02 4.5110721478505263e-02 2.9497374998605323e-02 -1.3651389836380731e-01 -9.3241782127836070e-02 7.2330299942532733e-02 9.7894919556349588e-02 7.6128197991179952e-02 -2.4469151134539164e-03 5.8200478421511131e-02 1.5166203930344782e-01 -1.0387074349884944e-01 6.6686221961841624e-02 6.8118250065594160e-02 -3.7420759502998856e-02 -5.7470877981836282e-02 9.1407364815064424e-02 -9.3360858495628668e-02 -1.1222771453758276e-01 -1.1392633741171743e-01 -6.7612816337132273e-02 -8.7825135069637725e-02 -2.0412244480352185e-02 4.4264727899497029e-02 2.0054861151368477e-02 6.0570372275092890e-02 -2.2461497684498331e-03 -7.0961049569009976e-02 -1.2114881775084350e-01 -1.2202852674953503e-01 -2.6417437422188669e-03 -1.9270099729322331e-02 -2.9566201029590199e-03 -6.1238973942962779e-02 1.0887818901240805e-01 3.7285113823925659e-02 -9.6925888575476973e-02 2.9219742823761530e-04 -2.4927828051166757e-02 -1.7964584545391200e-02 1.1473675589464179e-01 -6.6029613321493347e-02 6.5631968223266376e-02 8.7141160346745586e-02 4.3827289756099015e-02 -7.6293820098784298e-02 -1.2521413653826491e-01 5.6162112801286877e-02 2.8035747258011817e-02 -5.9028070742938268e-02 -1.5445404564033902e-03 1.6258994371362847e-03 -1.1839959037200312e-01 1.0479500936436681e-01 -6.2857868451637627e-02 -4.9591360053455142e-03 -5.4065878756020425e-02 -3.2739774569180993e-02 -3.8453693838745889e-02 5.1644084956437804e-02 3.7457212351835682e-02 1.2545113236086472e-01 -8.4084494368074192e-02 1.1769929373730265e-01 4.8615082135592354e-02 -9.6730039569311907e-02 -1.1890911311006085e-01 5.1004198430656497e-02 5.8819505125432346e-02 2.9065429841978300e-02 4.9355558125530247e-02 -5.9511472396687380e-02 -1.7454013228330711e-06 9.0783094592492800e-02 8.0440338456114410e-03 5.4927436779779962e-03 -1.0279692345626064e-01 -3.4626513696602197e-02 9.6998971239131246e-02 6.6306510891622109e-02 -4.3437612220876581e-02 1.2760317064991566e-01 1.3237344989039740e-01 8.1239772580774337e-03 3.5732565036656151e-02 -5.8184802040559515e-02 -6.7814017245655819e-02 -2.6112190965570360e-02 -7.2557088375007628e-02 -2.0394707842579813e-02 3.8522773737145188e-02 -6.2131899723787638e-02 4.4487178827761834e-02 -4.2141844508556570e-02 7.9182342690357899e-02 -9.1621278930810068e-02 6.4780203240834860e-02 -2.3449317218193409e-02 2.5299681295464532e-02 -4.7730292960004354e-02 -6.3231984553209705e-02 1.0748863181073303e-02 -6.8584957833962054e-04 -1.1788824025723826e-01 9.3517682613675851e-02 2.1448230246512004e-02 6.1793916600820786e-02 4.0863542107288507e-02 5.9938863202848428e-02 8.0839509351732772e-02 2.6956161532229701e-02 5.1259642343894622e-02 3.0274257048723881e-02 5.2997493949281660e-02 1.0928980638152540e-01 -5.8080353975475014e-02 -6.6447691252589744e-02 1.2030617457175523e-01 8.0051867047499586e-02 8.7137143239051543e-02 -1.2680926168459838e-01 6.3417469926474818e-02 9.0745142376442059e-02 8.5923714396155926e-02 -1.2094493564129657e-01 9.2374093091505211e-02 -1.2105819726351714e-01 8.4150709023874171e-02 6.4947882893718490e-03 -6.3679032780251332e-02 -1.0133585803346767e-01 7.0629292777872235e-02 2.6982847045481848e-02 -9.2897816166080810e-02 6.8235860704620468e-02 1.6251790270005579e-02 8.4620058777975793e-02 -1.2168214878220569e-01 1.1445655995870629e-01 -5.0916847881444488e-02 -1.2789051691144313e-01 -6.7896163494840553e-02 -6.8913465335453977e-02 7.9560337661981104e-02 -7.8414619854137738e-02 -7.2132332574919189e-02 -2.2366079552959987e-02 -5.1232913760915134e-02 -1.7887076130234401e-02 -7.3622834611105456e-02 1.8759183797242607e-02 9.2133965585817823e-02 -2.4665022223525422e-02 -2.3766988768673079e-02 1.1239403346791971e-01 -4.2506367700398826e-02 -7.9489741136425804e-02 3.7104128444860017e-02 -8.5491660445289719e-02 9.2045125084894125e-02 -2.5721285197076661e-02 -1.8191120135475608e-02 8.6259999959016551e-03 -5.4604647620179539e-02 -9.4121728460622583e-02 -1.2407947714899088e-01 2.2920067669849425e-02 9.4442502303914419e-02 -3.8142296472803289e-02 -8.3718935092999408e-02 -4.8733359938876848e-02 1.0895019207095617e-01 -4.8870899806587433e-03 1.0972251556790216e-01 1.0702951377499620e-01 7.0032734637873684e-02 -9.5809401035257369e-02 1.0653344197172644e-01 -7.1021476545361145e-02 -8.8937810029325950e-02 3.8610544038510192e-02 -7.2554854952204095e-02 1.8819235020186929e-02 -1.0533611719027181e-01 -3.1861538959465668e-02 -4.1563092348713707e-02 7.7998904987683415e-02 3.9949826954291348e-02 1.2104852302293391e-01 -1.2706636235365690e-01 -6.3153264663775868e-02 1.1682199087631215e-01 4.3926339090517498e-02 -1.1970180471265633e-01 -8.1517248487412500e-02 -4.2247068047290968e-02 -1.6388417048202077e-02 4.9143806611083508e-02 5.4978157130727116e-03 6.1725962306890959e-02 -1.2381543678906361e-01 -8.3712040987383492e-03 -1.2925104690422989e-01 2.9455265324684263e-02 -6.1181741594224081e-03 -1.2112853247356514e-01 5.4183727001275543e-02 6.1581471090492765e-02 -1.3481895164105095e-02 -2.7275295664042982e-02 -6.6209734644798915e-02 -7.9537486162453805e-02 -1.0589752475424655e-01 2.0855091637026698e-02 -9.2484975431405721e-03 -8.6775643195497812e-02 -1.1511864819664439e-01 -1.5023976594624960e-02 -1.0954284962292025e-01 -6.4744645851932334e-02 -5.2284101211615933e-02 -9.3550106898808966e-02 -6.0219547672836944e-02 -5.1101357054743189e-02 -7.2382328656802053e-03 3.7515264978140735e-02 4.0948273996139683e-03 5.1898767612035442e-02 1.1771592835233276e-01 -6.2417203988865876e-02 7.6115734253374520e-02 5.4222187039881936e-03 -9.4375257799519427e-02 -4.4511062608814204e-02 1.5262503898699990e-02 1.2207255827554406e-01 5.8938225105192865e-03 1.1880414043016621e-01 -5.8162542630390619e-02 -1.2820999511037537e-02 -7.3110220894445303e-03 -1.1154542948024150e-02 2.8428635295089818e-02 8.3045629509776828e-02 -1.3018237117177361e-01 7.7430279469427488e-02 1.0227586630982105e-02 -6.4352268009763833e-02 -9.4816946892403692e-02 -7.5611514495735874e-02 -8.6881615865503997e-02 -8.3710408696859362e-02 -4.3830197434347365e-02 1.2452788256963798e-01 1.0739498813744464e-02 2.6783082496868785e-02 -2.8487432606465420e-02 -1.0849778419506352e-02 -6.3717900460254245e-02 4.6935041042927061e-02 -7.0723299711821730e-02 -3.7131887634337763e-03 8.4988398490153896e-02 -1.0545441940076873e-01 1.4502661091360412e-02 -9.9646601379255365e-02 4.7420009144554494e-03 -1.0709097496803903e-01 8.3570370770550448e-02 -6.3126523863759415e-02 -6.7396835822673237e-02 4.9066522394719345e-03 -2.0608884283686266e-02 1.2363889175117550e-01 8.8840947260512337e-02 6.6660394210381779e-02 -7.7878947700785447e-02 -2.4202262310480657e-02 -8.7788047002961098e-02 -3.3208492810154712e-03 4.4873347724014041e-03 6.3294078897601344e-02 8.0197163923605014e-02 -7.3529769914509768e-02 -6.8920181430566871e-02 1.0004566160962386e-01 1.0993326153792307e-01 4.6557985084035684e-02 -1.0415396005901789e-01 -8.4118556086972454e-02 7.2422816457639025e-02 1.9426043529592537e-02 -8.7530840525192749e-02 1.1275045993103325e-01 7.1752140138601803e-02 9.3278549439488073e-02 9.1769958425340747e-02 -4.2566280817675280e-02 -5.5316900251873628e-02 -5.0659710543294253e-02 1.0106662054026599e-01 -8.4875947955642989e-02 2.1748166384885789e-02 -7.3229340572420018e-02 1.6153448688573480e-02 -1.2537696740256624e-02 -1.2123169028699749e-02 6.3684074206084643e-02 -1.1852343765100028e-02 1.1847405631934914e-01 5.5228913265718368e-02 3.7958706040841235e-02 -3.1193165659792781e-02 -7.1059694438180082e-02 8.7346752096367442e-02 -8.7544462343059598e-02 -6.8993445991559987e-02 1.8175424757406650e-02 1.0000545599412675e-01 1.0783780097864609e-01 8.6745389357962929e-02 -1.0413222432550895e-01 -5.0704262945455741e-02 -6.4361871406873619e-02 -2.4386783632595426e-02 2.4848403705998282e-02 5.2579153697977180e-02 -7.4708929303107852e-02 7.2368913015077016e-02 -2.3784619463322876e-02 -3.8345046690593590e-02 3.0154949429084442e-02 7.6623383009657486e-02 -7.8052376314902180e-02 -1.7313296896351096e-02 6.2633552770624806e-03 -6.8395446921883762e-02 9.0284155463251470e-02 -9.8629270851836565e-02 7.2620865836336840e-02 -1.1209942989956613e-01 -3.3338017381408097e-02 -3.5713645236865307e-02 -2.5940027953812703e-02 4.7616413480807446e-02 -8.3415454271931158e-02 -2.9328937763771622e-02 -9.5695109487755267e-02 4.0392801926299328e-02 -7.1147072445799195e-02 -1.2128233704654938e-01 5.6843429653524957e-02 -1.0111561899249956e-01 -3.8095595215096506e-02 9.6964358555326771e-02 -6.5142930280281591e-02 1.3973170450661808e-02 -3.8582942711014874e-02 3.0467793190193517e-02 4.8428244784773138e-02 -3.0969848345261591e-02 -9.3136730343497912e-02 1.1133838047308202e-01 7.0379431186976149e-02 -8.6127174651953825e-02 8.9670793422809938e-02 9.3062698522810128e-02 9.8687254934604660e-02 8.9280739986554222e-03 -2.6524129604767886e-02 1.0061074707144799e-01 8.8049101658652457e-02 -4.2560469426328275e-02 -4.0486557437020433e-02 -7.9029677041051849e-02 1.0709129311398916e-01 8.8886336900394491e-03 -1.2179790010870406e-01 -5.2529992624725456e-02 -1.2315180293500233e-01 -9.4994992681864163e-02 -3.9440238228024324e-02 -2.0230201392422904e-03 -7.0047508910694625e-02 1.6188815842037820e-02 1.5986324693320484e-02 -3.4868499977152481e-02 -1.1868114956328675e-01 3.9506845979005091e-02 3.6917698908336426e-02 1.2210679456897411e-01 -5.8075988109697288e-02 -5.8211612294519051e-02 -6.7485368206555554e-02 8.3033161254116791e-02 1.1955457547233880e-01 -1.2535769957709728e-01 3.2234680862022858e-02 1.0246042211309550e-01 -2.7777666784719805e-03 4.6929194693626775e-02 6.1139721335603192e-02 -6.9711037598092621e-02 -7.2199919386538469e-02 1.1069097402490981e-01 1.9498011892472498e-02 1.8916911064847945e-02 7.2377805940312651e-02 3.5549706147718581e-02 -1.3902205316541924e-02 -9.6840034922404269e-02 -1.1701799339338223e-01 3.1677822193411864e-02 -1.1883573864192946e-01 -7.3152966265752586e-02 1.7498745149687772e-02 1.1580944439467300e-01 -1.0003929558615372e-01 -8.0418294617924727e-02 1.0640605609332664e-01 2.5697231456726071e-02 4.5804506033668028e-02 -1.4326092184769511e-02 -9.2973932380284216e-02 2.6336049536040945e-02 -7.6199099376942872e-02 -1.1959184522411247e-01 8.2827445942458180e-02 1.0081628993482049e-02 3.9143477561250327e-02 -5.0908585700334692e-02 -1.9391422265893077e-02 2.5923351587599498e-02 -7.5040689773378702e-02 -5.9307337635263087e-02 -1.1110887045796873e-01 -1.2452137769610408e-01 -2.4007279958975801e-02 -2.2909230934807439e-02 7.8174807071723862e-02 2.6132802049246617e-02 -9.4697995251072798e-03 -3.3917821385253857e-02 -1.1394517803027493e-01 1.9194881874801496e-02 -1.2568915236691498e-02 -2.8957791133555261e-02 -7.5750659726168498e-02 -3.8059984071150688e-02 6.1656830075513397e-02 1.1147238786587159e-01 -9.5493195581467183e-02 7.2463777967384096e-02 2.4956831321794670e-02 -6.9265309573203954e-02 8.0183352609260586e-02 4.7417186136597150e-02 4.4734838790335227e-02 -8.4256817494108210e-02 8.0253776800508644e-02 -6.2651711420681794e-02 2.5771439975511925e-02 -2.6001609175543849e-02 2.5875201922271419e-02 -1.2546830685229676e-01 3.4593308027465818e-02 -1.0416677424166249e-03 -8.6940237446413118e-02 -9.5921337550366800e-03 4.6109264398644420e-02 -3.7911667989923466e-02 -1.0676051217921709e-01 -7.1205553346962047e-02 -1.2092560067735283e-01 1.1266454031339558e-01 -3.5467469656968773e-02 -1.1383771734408575e-01 5.4556142933733662e-02 -5.3258231023449107e-02 -5.7615633929796205e-02 6.3489336390232770e-02 2.5323781002637429e-02 -1.0016340977632801e-01 6.7434253417041429e-02 6.5867999093637011e-02 7.5287598831822733e-02 5.1641741941791573e-02 -1.0960974422337882e-01 -1.0606708558620537e-01 -1.6007554141270482e-02 -4.3467652178912138e-02 5.8337344271207322e-03 9.1844836447844164e-02 1.1094515078749308e-01 7.8175791746914344e-02 -7.3270385699208658e-03 1.0653168290213536e-01 -7.6780330843432928e-02 6.1935093446276370e-03 -2.7760980550808206e-02 1.2412440957439341e-01 -3.9355794449868954e-02 -1.0417783351188573e-01 8.3793643751876312e-02 1.1863365421539923e-02 -3.4904801933316902e-02 -1.2086090782068028e-01 -5.6040015051731062e-02 3.2562916989608344e-02 -1.2407805781345749e-01 3.8913330119252548e-02 5.0513629777218794e-02 -1.2356211555339737e-01 6.4228841447778781e-02 7.5805009821566696e-04 -7.5914017978825660e-02 -8.2418167763171832e-02 7.8596386116115455e-02 -3.7835788701679647e-02 5.4635946539486595e-03 9.8088244155778076e-02 -1.0530681480008230e-01 5.8353266230963527e-02 4.5323421818296433e-02 -6.6785095672609388e-02 -6.4160511556232661e-02 -8.9906999491542086e-02 -5.3792505005352525e-03 -4.7050380871571151e-02 -9.8789521900756582e-03 1.0805920422613638e-01 -7.1714647447588389e-02 7.9232117386532186e-02 1.0371618680931828e-01 8.0483407494381334e-02 4.7764002687539373e-02 -1.0067843584149128e-01 1.1967199381726773e-01 -1.8667922852389624e-02 -2.4476316361202337e-02 9.2871989050372389e-02 9.4281829504817824e-02 -5.1741205445193630e-02 -6.2984014286665266e-02 -2.5696838117376729e-02 7.9769798549104265e-02 1.0993168166951917e-01 9.8955310985189102e-02 -6.3991757845962352e-02 -5.3941650299801774e-02 1.1188844307704354e-01 -3.1568193986727770e-02 5.7284407807620528e-02 9.5456026607983108e-02 -5.0498698393820665e-02 -1.0419483712412990e-01 -3.3987101124862383e-02 -8.7046799059965849e-03 -1.0553159025331098e-01 -9.4009520636963037e-02 -2.3493845650239271e-02 9.3276947184839740e-02 1.5338513311216646e-02 -1.3405660672814346e-02 -1.0909021078771557e-01 -1.0044117742960232e-01 2.8881714267915092e-02 -2.1401542941576920e-02 -3.6078633606553133e-02 1.7342769160753585e-02 4.9246111028700162e-02 1.2694872253446768e-01 1.1330902731897882e-01 -1.0047719979806495e-03 2.1184577410916436e-02 3.0486087483128806e-02 -2.1450933271228264e-02 1.4712219410466928e-03 7.4770617344314519e-02 -9.5223615463555247e-02 -1.0821946556696124e-02 1.1676600512861729e-01 -1.1231696143926129e-01 -3.8271072064491568e-02 -2.8361066879496181e-02 -1.5458227209653688e-02 -8.6596870494215189e-02 -1.1696308655872659e-02 2.1305232898721198e-02 -7.6733518898236916e-02 -4.2262528670122028e-02 1.2329424452801820e-01 -1.3157937793867547e-01 -4.6639891521760735e-02 1.0759362720331160e-01 -3.2485159158630213e-02 1.7489147051413717e-02 -9.5267689874869693e-02 -1.4578334043249638e-02 -3.0602398981281944e-02 1.3066931776607424e-01 8.2235463936696437e-02 -9.9303942663047415e-02 9.3936927504436482e-02 -1.0265757787009092e-01 1.0359567923421169e-01 -5.1635508374444181e-02 1.6083721768407690e-02 -2.1431122280459146e-02 -1.0728376319539051e-01 1.2151158846696659e-01 4.6374796834772553e-02 -2.6761323709395525e-02 -9.2179993123468213e-03 1.7316994558825398e-02 1.5014656570057117e-01 -5.4030950453627234e-02 -1.3390427470979746e-02 -2.1446726817609764e-02 5.0969958295878151e-03 -6.4605694156363622e-02 6.2648890946259916e-02 6.4923502777357103e-02 -1.5595646328707540e-02 7.4568900449862141e-02 -1.8617179402581445e-02 -6.8895354389854752e-02 1.1394006178839529e-01 2.6152465793725890e-02 5.6876156396817229e-02 -8.5128581183293056e-02 5.0591489247344135e-02 -1.4856797614493255e-02 1.1480282336348331e-01 6.6212983411518572e-02 -1.0100150400357984e-01 7.1777827255761466e-03 -2.5331484555281964e-02 4.8564912762386406e-02 -1.9560804407294770e-03 6.6408625735400989e-04 -2.5191442482004372e-02 1.0629320409575248e-01 -6.8878098300432261e-02 -2.9634850615007501e-02 -1.2254976543459621e-01 -1.2256943398170683e-01 -6.0135510825380240e-02 8.3014158237756860e-02 -1.1088551766917006e-01 -2.1677989166329528e-01 3.2362584771661568e-02 -3.6119511895649672e-02 -5.9713080231419300e-03 -6.5065099021674455e-02 -1.7082099359594460e-01 -4.1569894365021301e-02 2.0183443534713921e-02 -7.2009208415176024e-02 9.4633609121107607e-03 3.2077212185224475e-02 -1.2374458201234985e-02 8.8556404578573750e-02 4.1499860176486512e-02 -3.8776330881496013e-02 1.1982314747553781e-01 2.5729237339510429e-02 5.1091147047774337e-02 1.2374568920848728e-01 3.0826669422512259e-02 9.4368687842883686e-02 7.4044743611370936e-02 3.2410150541577962e-02 -6.2668673468905423e-02 -9.5338438137240064e-02 -1.4983762762043421e-02 1.3811068120775585e-01 -1.5412784749242578e-02 1.2066735305257099e-01 9.6290796306188267e-02 -3.5876709269509213e-02 8.8930335688395007e-02 -1.4612580970084810e-01 -2.8152484319555117e-02 7.8568077048942156e-02 7.3256194345644329e-02 -1.4286962676872017e-01 6.5058878352639543e-02 -5.8705476854498069e-02 2.1775226378788988e-02 6.8447223981500507e-02 -2.8846319129979228e-02 -1.0728990851676777e-01 -5.0489676677160131e-02 -2.1258609847435609e-02 1.2900252438913698e-01 2.2701569834118470e-02 7.6529206847532047e-02 1.3168785268157943e-01 -1.4154582229108056e-02 4.6960589325338579e-02 5.9960734886075694e-02 -8.7398494945935781e-02 -4.9834628933654791e-02 -5.5323295283409998e-02 -1.6802424370635646e-01 1.2796212382013397e-01 3.9768206314437842e-03 -3.4675207530222095e-02 7.0469861827261976e-02 1.2129546950686305e-01 6.8937952190167032e-02 3.7175218772964716e-02 -1.0248620540985556e-01 1.4694295365981078e-01 1.0238349980471061e-01 -1.1872166341996448e-01 -5.1645040507967151e-02 -1.3434017685449368e-01 -1.0696089567136580e-01 -2.0422408763461991e-01 -1.5443066658836588e-01 -3.3568956937551978e-02 -2.0881018409473026e-02 -7.5825895340408692e-02 -1.8259949318176932e-01 -1.0196857122810908e-01 -5.9773554769122682e-02 6.9364322445963966e-02 -5.4715028968503623e-02 9.5559111838077915e-02 1.1298456375972837e-01 8.6986195652482487e-02 -5.2757205032614059e-02 -9.2411113442016857e-02 -4.6961080592730658e-02 -1.8360018971438663e-01 -9.5636248380705211e-02 -8.6344447063475174e-02 -1.5907385895866627e-02 -3.5463436814477493e-02 4.2668152284727951e-04 1.2072980681358804e-01 1.9375659718547520e-02 -1.9995498472839155e-03 -2.9569449663444710e-02 -3.1376008370566560e-02 2.3857643735885337e-02 -4.9505716932333826e-02 -4.4243535285426926e-02 4.7367165475884147e-02 1.1978498294487323e-01 -5.8674517266936593e-02 -4.7075165426389956e-04 1.0992340401210239e-01 2.0528852748296417e-01 -8.2626411336937156e-02 -1.9925805020262942e-02 -1.0386687788354482e-01 1.4780876057534836e-01 -1.2708254524015875e-01 9.4088089863677518e-02 -1.0612776708999240e-01 9.1225015292539183e-04 -1.8737016892374597e-01 -1.1194208135429339e-01 -4.1317462546628110e-02 -1.1689877902319032e-01 -4.3608475830460708e-02 -1.6346087787258884e-01 2.0224880849210927e-01 -1.8418869298403398e-01 3.9602622733116849e-02 7.0125552756671386e-02 1.2764360352425747e-02 9.7311600229175899e-02 3.1555542132977690e-02 -7.8729472840110407e-02 -1.1156432314454326e-01 -6.8318568007658356e-02 5.4492984544167490e-02 5.5532438572355441e-03 5.8286015948629172e-02 -1.1325957311523771e-01 -1.2316663728984771e-01 -4.2539118485261748e-02 -5.4056383686914025e-02 3.8972840417176476e-03 1.8615118314426828e-02 -1.0825836389610373e-01 -6.8941475944706856e-02 1.1948219927575342e-01 4.3873579289371648e-03 8.1814703458887347e-02 -1.2962804251081702e-02 6.8881054289924484e-02 1.7242300646338384e-02 -4.9159263832855772e-02 6.2367494013465127e-02 7.6278909247734020e-02 5.7920311800071754e-02 2.0624844390495826e-02 3.9678506436744441e-02 -6.4207505140393042e-02 -1.5325376240612400e-02 3.1019470299666473e-02 -9.9310595857052597e-02 5.3901694597481148e-02 2.3447667661993490e-02 5.8463292641453696e-03 -9.1588098623948139e-03 1.9017159463850055e-03 -1.1722527207284515e-01 -1.2248594112469463e-01 -2.4337904027882214e-02 -6.4097136235861885e-02 -5.0136275470845038e-02 1.0467182235103854e-01 1.0948576370019746e-01 -3.0940193924064028e-02 2.0983499820147654e-02 9.2378066844797865e-03 -1.2413026255290477e-01 5.1883915447006705e-02 1.0051387313125565e-01 5.7631239837159232e-02 -6.1491127022313567e-02 -6.1088215212528905e-02 1.0989713637389886e-01 -8.1345762320934420e-02 -6.2082954693318093e-02 9.1892864430072316e-02 -1.1996680564293639e-01 -1.2892356016532948e-02 -1.2247394871948046e-01 2.3951598667834376e-02 7.3065427309889963e-02 -4.4514311583999801e-02 -6.5690173440758615e-02 8.9458050328488498e-02 -1.2387056475138850e-01 7.7066513241484003e-02 -1.4634606418211933e-02 -5.0558261515363093e-02 -8.3285891602529499e-02 5.9082608497443720e-02 1.1543941305276278e-02 -4.6030605597399257e-02 1.6004696756301649e-02 5.3391655622341348e-02 -9.5230063437494600e-02 -8.1904379099605028e-03 -2.0580723087718564e-02 1.5988003472143702e-03 1.0311214383676730e-01 -8.7290995731493598e-02 -1.0943268066548018e-01 -2.0160982700941164e-02 9.1286097795117052e-02 -8.1012921723873199e-02 1.2390799856728202e-01 -2.6688774782499727e-02 9.9076986300553227e-02 -8.6704425423376100e-02 -9.5800412532359117e-02 1.0711124736393959e-01 1.4506356044889776e-02 -8.4454357278599290e-02 -4.6206267573285373e-02 4.5505285484192984e-02 -1.9127034804086206e-03 -7.6917803109094962e-02 4.8258868959823564e-02 4.8912632028249046e-02 7.6158740828194432e-02 -2.7173650179736747e-02 3.2381789173088565e-02 9.8881056250715138e-02 -4.7872323351967699e-02 7.6448909518465322e-02 1.0901655106325987e-01 6.9099697454430578e-02 8.5004013789271249e-02 1.3230646156892348e-05 -7.0360524709466202e-02 6.0587898646397463e-03 4.3362618567894015e-02 -1.6185430793566082e-02 -1.0180425794486349e-01 -8.5986250364126784e-02 -1.5760712312158788e-02 1.0078286620712912e-02 1.1068550307645100e-01 -7.5394621131332662e-02 -5.0320522306221714e-02 -1.6136563331210108e-02 -5.8357519687426126e-02 -1.0855622883160955e-01 4.5695907597813355e-02 6.2217729149421051e-02 -6.8824689590544677e-02 5.4898620261099561e-03 -8.9212218043102254e-02 7.0431005669094410e-02 8.8066036008847742e-02 -3.6160613648174050e-02 7.9260735640713338e-04 -1.5532396021221738e-02 4.1863425774938588e-02 3.2434741334122760e-02 -5.0043640109146706e-02 -6.5425693375612173e-02 8.6506501060142849e-02 -6.2326267955085196e-02 6.7765702202055699e-03 7.7598634928306653e-02 2.4540598378103979e-02 -1.1175451289939847e-01 -1.8315564222800292e-02 6.6790933173774172e-02 -1.1215864916009523e-01 -5.3380304343684071e-02 1.1926972229214385e-02 -9.5633015488170228e-02 -2.2989853329856074e-02 2.4159620673046642e-02 1.1659949047780022e-01 